{"learner":{"attributes":{},"feature_names":["num_PIs","num_used_gates","num_XOR_gates","num_AND_gates","num_CNF_vars","num_CNF_clauses","num_CNF_lits","min_XOR_block","max_XOR_block","avg_XOR_block","geo_mean_XOR_block","min_XOR_chain","max_XOR_chain","avg_XOR_chain","geo_mean_XOR_chain","max_idis","avg_idis","max_odis","avg_odis","max_sum_dis","min_sum_dis","avg_sum_dis","max_out_degree","avg_out_degree","cost_SAT","cost_ES","min_stable_percentage","max_stable_percentage","avg_stable_percentage","min_entropy","max_entropy","avg_entropy","threads"],"feature_types":["float","float","float","float","float","float","float","float","float","float","float","float","float","float","float","float","float","float","float","float","float","float","float","float","float","float","float","float","float","float","float","float","float"],"gradient_booster":{"model":{"cats":{"enc":[],"feature_segments":[],"sorted_idx":[]},"gbtree_model_param":{"num_parallel_tree":"1","num_trees":"113"},"iteration_indptr":[0,1,2,3,4,5,6,7,8,9,10,11,12,13,14,15,16,17,18,19,20,21,22,23,24,25,26,27,28,29,30,31,32,33,34,35,36,37,38,39,40,41,42,43,44,45,46,47,48,49,50,51,52,53,54,55,56,57,58,59,60,61,62,63,64,65,66,67,68,69,70,71,72,73,74,75,76,77,78,79,80,81,82,83,84,85,86,87,88,89,90,91,92,93,94,95,96,97,98,99,100,101,102,103,104,105,106,107,108,109,110,111,112,113],"tree_info":[0,0,0,0,0,0,0,0,0,0,0,0,0,0,0,0,0,0,0,0,0,0,0,0,0,0,0,0,0,0,0,0,0,0,0,0,0,0,0,0,0,0,0,0,0,0,0,0,0,0,0,0,0,0,0,0,0,0,0,0,0,0,0,0,0,0,0,0,0,0,0,0,0,0,0,0,0,0,0,0,0,0,0,0,0,0,0,0,0,0,0,0,0,0,0,0,0,0,0,0,0,0,0,0,0,0,0,0,0,0,0,0,0],"trees":[{"base_weights":[1.9177792E0,-3.205605E1,5.866521E2,-1.1018454E1,1.121797E2,6.2294763E2,6.1036484E1,6.396988E-1,3.0456448E1,1.7312866E2,2.9483278E1,3.5320315E0,8.312656E1,1.7782774E0,-8.094365E-1,8.731261E-1,2.328795E1],"categories":[],"categories_nodes":[],"categories_segments":[],"categories_sizes":[],"default_left":[0,0,0,0,0,0,0,0,0,0,0,0,0,0,0,0,0],"id":0,"left_children":[1,3,5,-1,7,9,11,-1,-1,-1,-1,13,15,-1,-1,-1,-1],"loss_changes":[7.256346E7,4.367462E6,3.460648E6,0E0,6.4765E3,9.76112E5,2.6903523E4,0E0,0E0,0E0,0E0,5.2684186E2,1.0445E3,0E0,0E0,0E0,0E0],"parents":[2147483647,0,0,1,1,2,2,4,4,5,5,6,6,11,11,12,12],"right_children":[2,4,6,-1,8,10,12,-1,-1,-1,-1,14,16,-1,-1,-1,-1],"split_conditions":[2.9E1,9E0,4.18733E-1,-1.1018454E1,4.03E2,3.7687E0,9.99847E-1,6.396988E-1,3.0456448E1,1.7312866E2,2.9483278E1,4.22436E-1,3.65946E0,1.7782774E0,-8.094365E-1,8.731261E-1,2.328795E1],"split_indices":[22,8,28,0,1,10,27,0,0,0,0,28,10,0,0,0,0],"split_type":[0,0,0,0,0,0,0,0,0,0,0,0,0,0,0,0,0],"sum_hessian":[3.634E3,3.443E3,1.91E2,3.254E3,1.89E2,1.77E2,1.4E1,1E0,1.88E2,1.69E2,8E0,7E0,7E0,5E0,2E0,1E0,6E0],"tree_param":{"num_deleted":"0","num_feature":"33","num_nodes":"17","size_leaf_vector":"1"}},{"base_weights":[5.907095E-1,-2.295728E1,4.313923E2,-8.046586E0,8.300398E1,1.2764425E2,1.0711771E2,1.3450593E0,2.2639544E1,1.3841572E1,1.357823E2,-1.5748502E-1,6.233334E-1,-3.6260918E-1,1.5586361E1,3.7014847E0,4.3169815E1,4.3722706E0,8.546965E-2,1.5322437E0,-2.9629594E-1],"categories":[],"categories_nodes":[],"categories_segments":[],"categories_sizes":[],"default_left":[0,0,0,0,0,0,0,0,0,0,0,0,0,0,0,0,0,0,0,0,0],"id":1,"left_children":[1,3,5,-1,7,-1,9,11,-1,13,15,-1,-1,-1,17,19,-1,-1,-1,-1,-1],"loss_changes":[3.730161E7,2.5333385E6,2.020504E6,0E0,1.0881125E4,0E0,7.137666E4,3.880195E1,0E0,7.2966064E2,7.125569E4,0E0,0E0,0E0,6.298291E1,1.9933836E2,0E0,0E0,0E0,0E0,0E0],"parents":[2147483647,0,0,1,1,2,2,4,4,6,6,7,7,9,9,10,10,14,14,15,15],"right_children":[2,4,6,-1,8,-1,10,12,-1,14,16,-1,-1,-1,18,20,-1,-1,-1,-1,-1],"split_conditions":[2.6E2,9E0,4.15922E-1,-8.046586E0,4.03E2,1.2764425E2,6.17917E1,9.8407E-1,2.2639544E1,3.25217E1,3.92982E0,-1.5748502E-1,6.233334E-1,-3.6260918E-1,9.42545E-4,2.118E3,4.3169815E1,4.3722706E0,8.546965E-2,1.5322437E0,-2.9629594E-1],"split_indices":[12,8,28,0,1,0,13,27,0,14,9,0,0,0,29,1,0,0,0,0,0],"split_type":[0,0,0,0,0,0,0,0,0,0,0,0,0,0,0,0,0,0,0,0,0],"sum_hessian":[3.658E3,3.477E3,1.81E2,3.274E3,2.03E2,1.57E2,2.4E1,2E0,2.01E2,9E0,1.5E1,1E0,1E0,1E0,8E0,4E0,1.1E1,7E0,1E0,2E0,2E0],"tree_param":{"num_deleted":"0","num_feature":"33","num_nodes":"21","size_leaf_vector":"1"}},{"base_weights":[3.6058805E0,-1.6530087E1,3.303857E2,-2.1578955E1,1.6180593E1,9.54972E1,9.240265E1,-5.8725224E0,-1.2423664E0,1.1115319E2,1.676456E1,-4.0293875E0,1.0580976E1,1.4606196E0,1.18438934E2,4.8385963E0,3.1228262E-1,8.328302E-2,3.3513214E1],"categories":[],"categories_nodes":[],"categories_segments":[],"categories_sizes":[],"default_left":[0,0,0,0,0,0,0,0,0,0,0,0,0,0,0,0,0,0,0],"id":2,"left_children":[1,3,5,7,-1,-1,9,-1,11,13,15,-1,-1,-1,17,-1,-1,-1,-1],"loss_changes":[2.421215E7,1.3490286E6,8.40238E5,8.544E3,0E0,0E0,2.6602062E4,0E0,2.2917086E4,1.1712094E4,6.0600586E1,0E0,0E0,0E0,1.3246969E4,0E0,0E0,0E0,0E0],"parents":[2147483647,0,0,1,1,2,2,3,3,6,6,8,8,9,9,10,10,14,14],"right_children":[2,4,6,8,-1,-1,10,-1,12,14,16,-1,-1,-1,18,-1,-1,-1,-1],"split_conditions":[2.6E2,2.7E1,4.15922E-1,3.9703E0,1.6180593E1,9.54972E1,6.25137E-1,-5.8725224E0,5.4E2,3.65946E0,4.19164E-1,-4.0293875E0,1.0580976E1,1.4606196E0,6E0,4.8385963E0,3.1228262E-1,8.328302E-2,3.3513214E1],"split_indices":[12,22,28,9,0,0,31,0,1,10,28,0,0,0,20,0,0,0,0],"split_type":[0,0,0,0,0,0,0,0,0,0,0,0,0,0,0,0,0,0,0],"sum_hessian":[3.662E3,3.458E3,2.04E2,3.25E3,2.08E2,1.82E2,2.2E1,3.228E3,2.2E1,1.4E1,8E0,2.1E1,1E0,2E0,1.2E1,6E0,2E0,1E0,1.1E1],"tree_param":{"num_deleted":"0","num_feature":"33","num_nodes":"19","size_leaf_vector":"1"}},{"base_weights":[7.004435E-1,-1.1702791E1,2.3645534E2,-4.2965407E0,4.8001003E1,6.947825E1,4.0194466E1,-3.2191763E-3,4.8223125E1,-7.72961E-1,4.9310345E1,1.3075268E1,4.6472922E-1,-5.25336E-1,2.4567607E-1,1.3843804E1,1.11250974E-1],"categories":[],"categories_nodes":[],"categories_segments":[],"categories_sizes":[],"default_left":[0,0,0,0,0,0,0,0,0,0,0,0,0,0,0,0,0],"id":3,"left_children":[1,3,5,-1,7,-1,9,-1,11,13,15,-1,-1,-1,-1,-1,-1],"loss_changes":[1.0681335E7,8.739457E5,6.32377E5,0E0,2.5813125E3,0E0,1.1163539E4,0E0,3.529375E2,4.8272156E1,1.8230039E3,0E0,0E0,0E0,0E0,0E0,0E0],"parents":[2147483647,0,0,1,1,2,2,4,4,6,6,8,8,9,9,10,10],"right_children":[2,4,6,-1,8,-1,10,-1,12,14,16,-1,-1,-1,-1,-1,-1],"split_conditions":[2.6E2,9E0,1.549E3,-4.2965407E0,9.8407E-1,6.947825E1,4.43E2,-3.2191763E-3,6.28112E-1,3.28462E1,2.393E3,1.3075268E1,4.6472922E-1,-5.25336E-1,2.4567607E-1,1.3843804E1,1.11250974E-1],"split_indices":[12,8,1,0,27,0,12,0,31,14,1,0,0,0,0,0,0],"split_type":[0,0,0,0,0,0,0,0,0,0,0,0,0,0,0,0,0],"sum_hessian":[3.634E3,3.461E3,1.73E2,3.241E3,2.2E2,1.54E2,1.9E1,1E0,2.19E2,5E0,1.4E1,2.18E2,1E0,3E0,2E0,1.3E1,1E0],"tree_param":{"num_deleted":"0","num_feature":"33","num_nodes":"17","size_leaf_vector":"1"}},{"base_weights":[1.6272187E0,-8.95452E0,1.844277E2,-1.1596037E1,2.9990864E1,5.3119926E1,5.704711E1,-3.139655E0,1.1901301E0,3.6236233E1,-2.5936143E0,8.4136116E1,5.3903913E-1,-3.1368092E-3,4.2311865E-1,1.8826017E1,3.1981113E1,-0E0,2.5242352E1,-3.2839315E0,1.1330826E0,2.9040492E-1,8.675718E0,4.2005605E-1,-4.831056E-1,-1.2717534E-2,-9.6089524E-1],"categories":[],"categories_nodes":[],"categories_segments":[],"categories_sizes":[],"default_left":[0,0,0,0,0,0,0,0,0,0,0,0,0,0,0,0,0,0,0,0,0,0,0,0,0,0,0],"id":4,"left_children":[1,3,5,7,9,-1,11,-1,13,15,-1,17,19,-1,-1,-1,21,23,-1,25,-1,-1,-1,-1,-1,-1,-1],"loss_changes":[7.0197145E6,3.5630288E5,1.94962E5,6.6659375E2,5.792064E4,0E0,4.6140094E4,0E0,9.48447E0,5.7669844E3,0E0,1.6142109E4,4.072144E2,0E0,0E0,0E0,1.4151562E2,5.9230972E1,0E0,1.5621948E0,0E0,0E0,0E0,0E0,0E0,0E0,0E0],"parents":[2147483647,0,0,1,1,2,2,3,3,4,4,6,6,8,8,9,9,11,11,12,12,16,16,17,17,19,19],"right_children":[2,4,6,8,10,-1,12,-1,14,16,-1,18,20,-1,-1,-1,22,24,-1,26,-1,-1,-1,-1,-1,-1,-1],"split_conditions":[2.9E1,3.61102E0,1.549E3,3.875E0,3.65667E0,5.3119926E1,6.2402E-1,-3.139655E0,9.8407E-1,9.9942E-1,-2.5936143E0,3.65946E0,3.28462E1,-3.1368092E-3,4.2311865E-1,1.8826017E1,4.06801E-1,2.118E3,2.5242352E1,9.99268E-1,1.1330826E0,2.9040492E-1,8.675718E0,4.2005605E-1,-4.831056E-1,-1.2717534E-2,-9.6089524E-1],"split_indices":[22,10,1,9,10,0,31,0,27,27,0,10,14,0,0,0,28,1,0,27,0,0,0,0,0,0,0],"split_type":[0,0,0,0,0,0,0,0,0,0,0,0,0,0,0,0,0,0,0,0,0,0,0,0,0,0,0],"sum_hessian":[3.611E3,3.422E3,1.89E2,3.211E3,2.11E2,1.68E2,2.1E1,3.209E3,2E0,1.83E2,2.8E1,1.1E1,1E1,1E0,1E0,4E0,1.79E2,2E0,9E0,5E0,5E0,1E0,1.78E2,1E0,1E0,2E0,3E0],"tree_param":{"num_deleted":"0","num_feature":"33","num_nodes":"27","size_leaf_vector":"1"}},{"base_weights":[2.8273633E-1,-6.3421106E0,1.2927937E2,-2.2916012E0,2.2563713E1,1.367404E2,7.860567E0,2.719034E1,-2.0773275E0,3.785307E1,1.8953405E1,9.454018E0,-5.291181E-1,2.3678156E1,1.8494576E1,-1.0093068E-1,5.600329E0,1.2870634E-1,2.7225554E0,6.4196205E0,2.3088895E-1],"categories":[],"categories_nodes":[],"categories_segments":[],"categories_sizes":[],"default_left":[0,0,0,0,0,0,0,0,0,0,0,0,0,0,0,0,0,0,0,0,0],"id":5,"left_children":[1,3,5,-1,7,9,11,13,-1,-1,15,17,-1,19,-1,-1,-1,-1,-1,-1,-1],"loss_changes":[3.1415632E6,2.1714497E5,1.52005E5,0E0,3.599347E4,3.802275E4,5.1866516E2,1.5010484E4,0E0,0E0,6.552593E2,3.384375E1,0E0,1.64375E1,0E0,0E0,0E0,0E0,0E0,0E0,0E0],"parents":[2147483647,0,0,1,1,2,2,4,4,5,5,6,6,7,7,10,10,11,11,13,13],"right_children":[2,4,6,-1,8,10,12,14,-1,-1,16,18,-1,20,-1,-1,-1,-1,-1,-1,-1],"split_conditions":[2.9E1,3.875E0,4.18733E-1,-2.2916012E0,3.65667E0,6.28112E-1,1.053E3,4E1,-2.0773275E0,3.785307E1,3.28462E1,4.19164E-1,-5.291181E-1,6.28112E-1,1.8494576E1,-1.0093068E-1,5.600329E0,1.2870634E-1,2.7225554E0,6.4196205E0,2.3088895E-1],"split_indices":[22,9,28,0,10,31,12,0,0,0,14,28,0,31,0,0,0,0,0,0,0],"split_type":[0,0,0,0,0,0,0,0,0,0,0,0,0,0,0,0,0,0,0,0,0],"sum_hessian":[3.657E3,3.487E3,1.7E2,3.254E3,2.33E2,1.59E2,1.1E1,2.03E2,3E1,1.53E2,6E0,1E1,1E0,2.01E2,2E0,1E0,5E0,2E0,8E0,2E2,1E0],"tree_param":{"num_deleted":"0","num_feature":"33","num_nodes":"21","size_leaf_vector":"1"}},{"base_weights":[1.1227478E0,-4.850622E0,1.0958613E2,-6.194928E0,1.6489012E1,1.12579735E2,-1.3464631E-1,-1.6768098E0,1.1990985E-2,3.8179404E-1,4.518659E0,1.1619816E2,2.0206709E1,-1.836409E0,6.9785047E0,2.7440178E0,3.176987E1,8.334349E0,9.681797E-1,9.766002E-3,1.9885637E0,-8.040363E-1,9.853828E-1],"categories":[],"categories_nodes":[],"categories_segments":[],"categories_sizes":[],"default_left":[0,0,0,0,0,0,0,0,0,0,0,0,0,0,0,0,0,0,0,0,0,0,0],"id":6,"left_children":[1,3,5,7,9,11,13,-1,-1,-1,-1,15,17,-1,19,-1,-1,-1,21,-1,-1,-1,-1],"loss_changes":[2.3530482E6,9.973629E4,6.270925E4,1.1596875E2,4.0520703E2,3.88565E4,1.1428817E3,0E0,0E0,0E0,0E0,1.181975E4,3.420662E3,0E0,7.958557E0,0E0,0E0,0E0,2.8015643E2,0E0,0E0,0E0,0E0],"parents":[2147483647,0,0,1,1,2,2,3,3,4,4,5,5,6,6,11,11,12,12,14,14,18,18],"right_children":[2,4,6,8,10,12,14,-1,-1,-1,-1,16,18,-1,20,-1,-1,-1,22,-1,-1,-1,-1],"split_conditions":[2.55E2,2.7E1,4.22436E-1,9E0,4.06801E-1,3.90259E0,3E1,-1.6768098E0,1.1990985E-2,3.8179404E-1,4.518659E0,3.66584E0,1.549E3,-1.836409E0,3.2E1,2.7440178E0,3.176987E1,8.334349E0,1.621E3,9.766002E-3,1.9885637E0,-8.040363E-1,9.853828E-1],"split_indices":[12,22,28,8,28,10,0,0,0,0,0,10,1,0,0,0,0,0,1,0,0,0,0],"split_type":[0,0,0,0,0,0,0,0,0,0,0,0,0,0,0,0,0,0,0,0,0,0,0],"sum_hessian":[3.614E3,3.434E3,1.8E2,3.237E3,1.97E2,1.75E2,5E0,3.235E3,2E0,4E0,1.93E2,1.66E2,9E0,3E0,2E0,3E0,1.63E2,2E0,7E0,1E0,1E0,2E0,5E0],"tree_param":{"num_deleted":"0","num_feature":"33","num_nodes":"23","size_leaf_vector":"1"}},{"base_weights":[5.9709495E-1,-3.3519425E0,7.523352E1,-1.2258278E0,1.6936806E1,7.946676E1,1.4110981E0,1.3081958E1,1.7629494E1,-4.832661E-1,8.094147E1,-2.052331E0,8.556931E0,-1.6759658E-1,3.5705113E0,6.39631E-1,-9.2321223E-1,2.207419E1,4.1155663E0,2.0036405E-1,2.8175397E0,-7.8121346E-1,2.067266E0],"categories":[],"categories_nodes":[],"categories_segments":[],"categories_sizes":[],"default_left":[0,0,0,0,0,0,0,0,0,0,0,0,0,0,0,0,0,0,0,0,0,0,0],"id":7,"left_children":[1,3,5,-1,7,9,11,13,-1,15,17,-1,19,-1,-1,-1,-1,-1,21,-1,-1,-1,-1],"loss_changes":[1.059128E6,8.244944E4,5.5143E4,0E0,2.6887133E4,2.0698125E4,1.8827104E3,4.184375E2,0E0,1.8496484E2,5.2365E3,0E0,1.2306592E2,0E0,0E0,0E0,0E0,0E0,5.0982635E2,0E0,0E0,0E0,0E0],"parents":[2147483647,0,0,1,1,2,2,4,4,5,5,6,6,7,7,9,9,10,10,12,12,18,18],"right_children":[2,4,6,-1,8,10,12,14,-1,16,18,-1,20,-1,-1,-1,-1,-1,22,-1,-1,-1,-1],"split_conditions":[2.9E1,9E0,4.18733E-1,-1.2258278E0,1.5E1,9.99268E-1,3.2322E1,9.8407E-1,1.7629494E1,4.32308E0,9.67E2,-2.052331E0,2.04261E1,-1.6759658E-1,3.5705113E0,6.39631E-1,-9.2321223E-1,2.207419E1,9.99756E-1,2.0036405E-1,2.8175397E0,-7.8121346E-1,2.067266E0],"split_indices":[22,8,28,0,8,27,14,27,0,9,12,0,18,0,0,0,0,0,27,0,0,0,0],"split_type":[0,0,0,0,0,0,0,0,0,0,0,0,0,0,0,0,0,0,0,0,0,0,0],"sum_hessian":[3.575E3,3.404E3,1.71E2,3.224E3,1.8E2,1.61E2,1E1,1.78E2,2E0,3E0,1.58E2,4E0,6E0,1E0,1.77E2,2E0,1E0,1.56E2,2E0,4E0,2E0,1E0,1E0],"tree_param":{"num_deleted":"0","num_feature":"33","num_nodes":"23","size_leaf_vector":"1"}},{"base_weights":[9.793315E-1,-2.489579E0,6.3497E1,-3.2935576E0,9.065698E0,6.7336E1,-3.6254437E0,-8.9178514E-1,1.5640958E-1,9.660078E0,-5.223936E-1,5.7000156E1,3.5214336E1,-2.035548E0,4.957537E-1,-6.841462E-1,9.837908E0,5.9661568E1,-6.8491955E0,6.475662E-2,9.903454E0,6.715616E1,2.9262901E1,-2.0321657E-1,-2.0258965E0,2.6992493E0,8.461555E-1,6.951719E1,2.839589E0,3.5497738E1,1.1642457E1,2.2991654E-1,-3.577242E-1,-2.5955E-1,5.475534E-1,-3.8976192E0,7.105358E1,-1.6628543E0,5.6107836E0,-5.0366588E-2,9.944522E0,-1.7772375E0,1.4794491E1,1.5624787E-1,-1.3777776E0,1.9413496E1,1.2347243E0,5.791625E-1,-1.0795234E0,1.5890275E0,4.390274E-3,4.960007E-1,5.2172165E0],"categories":[],"categories_nodes":[],"categories_segments":[],"categories_sizes":[],"default_left":[0,0,0,0,0,0,0,0,0,0,0,0,0,0,0,0,0,0,0,0,0,0,0,0,0,0,0,0,0,0,0,0,0,0,0,0,0,0,0,0,0,0,0,0,0,0,0,0,0,0,0,0,0],"id":8,"left_children":[1,3,5,7,9,11,13,-1,-1,15,-1,17,-1,-1,-1,-1,19,21,23,-1,25,27,29,31,-1,-1,33,35,37,39,41,-1,-1,-1,-1,43,45,47,49,-1,-1,-1,51,-1,-1,-1,-1,-1,-1,-1,-1,-1,-1],"loss_changes":[8.026929E5,3.2865863E4,5.2643062E4,7.211719E1,1.7061641E3,4.8391562E4,5.638165E2,0E0,0E0,7.3565625E2,0E0,3.3886E4,0E0,0E0,0E0,0E0,8.8625E1,1.9567E4,3.1446594E1,0E0,4.141797E1,1.7443312E4,1.4752773E3,2.5655916E1,0E0,0E0,4.8163246E1,1.6766625E4,2.8156335E2,1.6389102E3,2.5351936E3,0E0,0E0,0E0,0E0,1.020755E2,2.5180625E3,1.9806798E2,6.2524414E-1,0E0,0E0,0E0,1.1536646E3,0E0,0E0,0E0,0E0,0E0,0E0,0E0,0E0,0E0,0E0],"parents":[2147483647,0,0,1,1,2,2,3,3,4,4,5,5,6,6,9,9,11,11,16,16,17,17,18,18,20,20,21,21,22,22,23,23,26,26,27,27,28,28,29,29,30,30,35,35,36,36,37,37,38,38,42,42],"right_children":[2,4,6,8,10,12,14,-1,-1,16,-1,18,-1,-1,-1,-1,20,22,24,-1,26,28,30,32,-1,-1,34,36,38,40,42,-1,-1,-1,-1,44,46,48,50,-1,-1,-1,52,-1,-1,-1,-1,-1,-1,-1,-1,-1,-1],"split_conditions":[2.6E2,2.25E2,6.28112E-1,4.92334E1,2.6E1,3.72445E0,3.28462E1,-8.9178514E-1,1.5640958E-1,9.99359E-1,-5.223936E-1,1.10083E2,3.5214336E1,-2.035548E0,4.957537E-1,-6.841462E-1,4.06801E-1,9.15527E-5,9.99847E-1,6.475662E-2,6.27125E-1,6.24698E-1,9.99908E-1,2.118E3,-2.0258965E0,2.6992493E0,6.10352E-5,9.99359E-1,2.8E1,8.01E2,4.06801E-1,2.2991654E-1,-3.577242E-1,-2.5955E-1,5.475534E-1,9.99268E-1,5.86E2,4.08835E-1,2.393E3,-5.0366588E-2,9.944522E0,-1.7772375E0,8.02E2,1.5624787E-1,-1.3777776E0,1.9413496E1,1.2347243E0,5.791625E-1,-1.0795234E0,1.5890275E0,4.390274E-3,4.960007E-1,5.2172165E0],"split_indices":[12,12,31,24,0,10,14,0,0,27,0,13,0,0,0,0,28,26,27,0,31,31,27,1,0,0,26,27,0,1,28,0,0,0,0,27,12,28,1,0,0,0,1,0,0,0,0,0,0,0,0,0,0],"split_type":[0,0,0,0,0,0,0,0,0,0,0,0,0,0,0,0,0,0,0,0,0,0,0,0,0,0,0,0,0,0,0,0,0,0,0,0,0,0,0,0,0,0,0,0,0,0,0,0,0,0,0,0,0],"sum_hessian":[3.684E3,3.499E3,1.85E2,3.278E3,2.21E2,1.75E2,1E1,3.277E3,1E0,2.11E2,1E1,1.66E2,9E0,4E0,6E0,1E0,2.1E2,1.6E2,6E0,2E0,2.08E2,1.19E2,4.1E1,2E0,4E0,2.05E2,3E0,1.14E2,5E0,2.3E1,1.8E1,1E0,1E0,1E0,2E0,2E0,1.12E2,3E0,2E0,1E0,2.2E1,1E0,1.7E1,1E0,1E0,1.1E2,2E0,1E0,2E0,1E0,1E0,8E0,9E0],"tree_param":{"num_deleted":"0","num_feature":"33","num_nodes":"53","size_leaf_vector":"1"}},{"base_weights":[5.854622E-1,-1.8035158E0,4.2680622E1,-6.538176E-1,7.980555E0,4.566509E1,6.0020417E-2,6.160754E0,9.75369E0,3.6651947E1,7.5675316E1,3.2286255E0,-5.66487E0,2.443252E0,7.5397034E0,3.8764164E1,9.75316E0,1.262109E1,1.1447066E2,-3.290061E0,2.2905402E0,-8.067775E-1,3.2173903E0,7.884117E0,-1.8963088E0,4.000655E1,5.825758E0,-1.4049505E0,1.7235497E1,5.4234076E0,-3.3526733E0,3.2039722E1,9.647198E-1,9.368606E-1,-3.7121E-1,4.6092063E-1,-1.8129706E0,4.022922E0,5.3712505E-1,-2.2903938E0,8.203647E0,2.4676807E-2,-6.4155143E-1,2.353995E1,4.6216267E1,1.6346605E1,-3.249091E0,7.59601E0,-7.9780383E0,5.083065E0,-7.2339505E-2,-1.0211904E0,4.2780438E-3,-1.6731045E-1,3.0367923E-1,-5.4363257E-1,-0E0,9.327594E-2,4.4406133E0,-1.1095868E0,8.034138E-1,-0E0,-6.666438E-1,3.2888193E-2,8.483165E0,2.6506903E1,-2.6914492E0,6.0541862E1,3.1432465E1,-2.009229E-1,4.956152E0,2.9115386E0,-6.7617613E-1,-3.3979878E0,2.4713717E0,-1.5624185E-1,2.633117E-1,1.8579957E0,4.6941215E-1,8.029228E-2,-6.336498E-1,5.147539E-1,-5.8091754E-1,2.3599536E0,1.5081826E-1,9.254933E0,3.9346967E0,1.71407E1,1.8653207E0,2.4936678E0,9.974236E0,1.6929141E0,-9.9052846E-1],"categories":[],"categories_nodes":[],"categories_segments":[],"categories_sizes":[],"default_left":[0,0,0,0,0,0,0,0,0,0,0,0,0,0,0,0,0,0,0,0,0,0,0,0,0,0,0,0,0,0,0,0,0,0,0,0,0,0,0,0,0,0,0,0,0,0,0,0,0,0,0,0,0,0,0,0,0,0,0,0,0,0,0,0,0,0,0,0,0,0,0,0,0,0,0,0,0,0,0,0,0,0,0,0,0,0,0,0,0,0,0,0,0],"id":9,"left_children":[1,3,5,-1,7,9,11,13,-1,15,17,-1,19,21,23,25,27,29,31,-1,33,35,37,39,41,43,45,47,49,-1,51,-1,-1,-1,-1,53,55,57,59,61,63,-1,-1,65,67,69,-1,71,73,-1,-1,-1,-1,-1,-1,-1,-1,75,77,79,-1,-1,-1,81,83,85,-1,87,89,-1,-1,-1,-1,-1,91,-1,-1,-1,-1,-1,-1,-1,-1,-1,-1,-1,-1,-1,-1,-1,-1,-1,-1],"loss_changes":[3.699738E5,2.1086594E4,2.4984E4,0E0,8.369412E3,2.3077688E4,2.1986921E3,8.562114E2,0E0,5.3758438E3,6.795909E4,0E0,1.408238E3,2.0877786E2,6.3203613E2,3.605E3,2.3251375E3,3.4857139E3,4.2952344E3,0E0,1.26561386E2,3.7814487E1,9.587738E1,6.59001E2,1.9989426E1,3.5712188E3,5.0013574E3,1.6798894E3,5.218208E2,0E0,3.2701782E1,0E0,0E0,0E0,0E0,1.9108137E1,6.9355316E0,5.5565186E1,1.3893861E2,3.5220184E0,2.9586035E2,0E0,0E0,8.289387E3,7.233281E2,6.693535E2,0E0,6.816893E2,1.0700275E3,0E0,0E0,0E0,0E0,0E0,0E0,0E0,0E0,1.5036675E1,1.1656201E2,4.9483448E1,0E0,0E0,0E0,9.7916794E1,1.892959E2,2.3108203E2,0E0,1.0365156E3,4.434129E3,0E0,0E0,0E0,0E0,0E0,5.183868E2,0E0,0E0,0E0,0E0,0E0,0E0,0E0,0E0,0E0,0E0,0E0,0E0,0E0,0E0,0E0,0E0,0E0,0E0],"parents":[2147483647,0,0,1,1,2,2,4,4,5,5,6,6,7,7,9,9,10,10,12,12,13,13,14,14,15,15,16,16,17,17,18,18,20,20,21,21,22,22,23,23,24,24,25,25,26,26,27,27,28,28,30,30,35,35,36,36,37,37,38,38,39,39,40,40,43,43,44,44,45,45,47,47,48,48,57,57,58,58,59,59,63,63,64,64,65,65,67,67,68,68,74,74],"right_children":[2,4,6,-1,8,10,12,14,-1,16,18,-1,20,22,24,26,28,30,32,-1,34,36,38,40,42,44,46,48,50,-1,52,-1,-1,-1,-1,54,56,58,60,62,64,-1,-1,66,68,70,-1,72,74,-1,-1,-1,-1,-1,-1,-1,-1,76,78,80,-1,-1,-1,82,84,86,-1,88,90,-1,-1,-1,-1,-1,92,-1,-1,-1,-1,-1,-1,-1,-1,-1,-1,-1,-1,-1,-1,-1,-1,-1,-1],"split_conditions":[2.9E1,9E0,6.27643E-1,-6.538176E-1,4E1,4.08913E-1,1.549E3,4.07667E-1,9.75369E0,4.08463E-1,4.01031E0,3.2286255E0,1.621E3,6.2402E-1,4.10177E-1,9.99969E-1,6.10352E-5,8.02524E0,2.807E3,-3.290061E0,1.753E3,6.23792E-1,9.99817E-1,9.99359E-1,6.10352E-5,6.19567E-1,4.07757E-1,6.21175E-1,9.99939E-1,5.4234076E0,3E1,3.2039722E1,9.647198E-1,9.368606E-1,-3.7121E-1,9.8407E-1,9.15527E-5,4.07284E-1,1.2207E-4,6.10352E-5,6.23792E-1,2.4676807E-2,-6.4155143E-1,4.07442E-1,6.2059E-1,4.06801E-1,-3.249091E0,4.08587E-1,6.23792E-1,5.083065E0,-7.2339505E-2,-1.0211904E0,4.2780438E-3,-1.6731045E-1,3.0367923E-1,-5.4363257E-1,-0E0,9.99756E-1,4.07386E-1,4.07284E-1,8.034138E-1,-0E0,-6.666438E-1,2.28E2,9.99908E-1,4.06801E-1,-2.6914492E0,1.2207E-4,4.07877E-1,-2.009229E-1,4.956152E0,2.9115386E0,-6.7617613E-1,-3.3979878E0,6.24698E-1,-1.5624185E-1,2.633117E-1,1.8579957E0,4.6941215E-1,8.029228E-2,-6.336498E-1,5.147539E-1,-5.8091754E-1,2.3599536E0,1.5081826E-1,9.254933E0,3.9346967E0,1.71407E1,1.8653207E0,2.4936678E0,9.974236E0,1.6929141E0,-9.9052846E-1],"split_indices":[22,8,31,0,0,28,1,28,0,28,9,0,1,31,28,27,26,16,1,0,1,31,27,27,26,31,28,31,27,0,0,0,0,0,0,27,26,28,26,26,31,0,0,28,31,28,0,28,31,0,0,0,0,0,0,0,0,27,28,28,0,0,0,2,27,28,0,26,28,0,0,0,0,0,31,0,0,0,0,0,0,0,0,0,0,0,0,0,0,0,0,0,0],"split_type":[0,0,0,0,0,0,0,0,0,0,0,0,0,0,0,0,0,0,0,0,0,0,0,0,0,0,0,0,0,0,0,0,0,0,0,0,0,0,0,0,0,0,0,0,0,0,0,0,0,0,0,0,0,0,0,0,0,0,0,0,0,0,0,0,0,0,0,0,0,0,0,0,0,0,0,0,0,0,0,0,0,0,0,0,0,0,0,0,0,0,0,0,0],"sum_hessian":[3.661E3,3.473E3,1.88E2,3.275E3,1.98E2,1.75E2,1.3E1,1.97E2,1E0,1.51E2,2.4E1,1E0,1.2E1,6.1E1,1.36E2,1.36E2,1.5E1,1.4E1,1E1,4E0,8E0,1.1E1,5E1,1.33E2,3E0,1.29E2,7E0,9E0,6E0,8E0,6E0,9E0,1E0,7E0,1E0,6E0,5E0,3.4E1,1.6E1,2E0,1.31E2,1E0,2E0,4.8E1,8.1E1,5E0,2E0,3E0,6E0,5E0,1E0,5E0,1E0,1E0,5E0,4E0,1E0,5E0,2.9E1,1.2E1,4E0,1E0,1E0,5E0,1.26E2,4.6E1,2E0,2.6E1,5.5E1,1E0,4E0,2E0,1E0,3E0,3E0,3E0,2E0,7E0,2.2E1,8E0,4E0,4E0,1E0,1.21E2,5E0,1.7E1,2.9E1,2.3E1,3E0,1.6E1,3.9E1,2E0,1E0],"tree_param":{"num_deleted":"0","num_feature":"33","num_nodes":"93","size_leaf_vector":"1"}},{"base_weights":[9.667837E-1,-1.2897998E0,4.435819E1,-1.764667E0,6.1143017E0,3.6816746E1,8.4183586E1,-4.7000962E-1,-6.612634E-1,4.6014256E0,8.316152E0,3.9644535E1,-6.617296E0,1.247029E0,3.3273552E1,-2.07685E0,4.8045E0,1.3875341E1,1.1135414E1,-3.1288824E0,2.1594467E0,-1.6496966E0,2.6221797E0,-6.495891E-1,-0E0,-0E0,4.8808417E0,2.0880438E1,-1.5734957E0,6.936443E-1,-0E0,-1.6303018E-1,1.4463906E-1,5.463183E-2,-9.450526E-2,5.237814E0,2.0405753E0,1.2413812E0,7.7061586E0,4.1685463E-3,-2.3998545E-2,2.1030798E0,4.3558326E0,-2.1820074E-2,2.4941487E0,2.7086673E0,-1.8715937E0,7.157414E-1,1.7806599E0,6.595557E-1,-6.2182695E-1,8.0221677E-1,-0E0],"categories":[],"categories_nodes":[],"categories_segments":[],"categories_sizes":[],"default_left":[0,0,0,0,0,0,0,0,0,0,0,0,0,0,0,0,0,0,0,0,0,0,0,0,0,0,0,0,0,0,0,0,0,0,0,0,0,0,0,0,0,0,0,0,0,0,0,0,0,0,0,0,0],"id":10,"left_children":[1,3,5,7,9,11,13,-1,-1,15,-1,17,19,21,-1,23,25,27,-1,-1,29,-1,-1,-1,31,33,35,37,-1,-1,39,-1,-1,-1,-1,41,43,45,-1,-1,-1,-1,47,49,51,-1,-1,-1,-1,-1,-1,-1,-1],"loss_changes":[3.6163716E5,1.2445375E4,2.4846625E4,8.799805E0,6.511454E3,2.3548516E4,6.769156E4,0E0,0E0,3.910122E2,0E0,7.431094E2,1.0710642E3,1.6040706E3,0E0,6.7565575E0,8.348877E1,4.454424E3,0E0,0E0,1.4738121E1,0E0,0E0,0E0,6.8647337E0,1.7629178E0,8.788965E1,2.5086104E3,0E0,0E0,8.574642E-2,0E0,0E0,0E0,0E0,3.8961914E1,4.407579E1,1.7865455E3,0E0,0E0,0E0,0E0,3.937058E2,1.4054878E2,3.37213E1,0E0,0E0,0E0,0E0,0E0,0E0,0E0,0E0],"parents":[2147483647,0,0,1,1,2,2,3,3,4,4,5,5,6,6,9,9,11,11,12,12,13,13,15,15,16,16,17,17,20,20,24,24,25,25,26,26,27,27,30,30,35,35,36,36,37,37,42,42,43,43,44,44],"right_children":[2,4,6,8,10,12,14,-1,-1,16,-1,18,20,22,-1,24,26,28,-1,-1,30,-1,-1,-1,32,34,36,38,-1,-1,40,-1,-1,-1,-1,42,44,46,-1,-1,-1,-1,48,50,52,-1,-1,-1,-1,-1,-1,-1,-1],"split_conditions":[2.9E1,9E0,6.17917E1,7E0,4E1,1.549E3,3.94643E0,-4.7000962E-1,-6.612634E-1,9.99359E-1,8.316152E0,8.01E2,3.28462E1,3E1,3.3273552E1,2.6E1,4.06801E-1,4.08913E-1,1.1135414E1,-3.1288824E0,2.393E3,-1.6496966E0,2.6221797E0,-6.495891E-1,9.8407E-1,9.99786E-1,1.52588E-4,6.10352E-5,-1.5734957E0,6.936443E-1,6.10352E-5,-1.6303018E-1,1.4463906E-1,5.463183E-2,-9.450526E-2,9.99634E-1,9.99634E-1,4.08362E-1,7.7061586E0,4.1685463E-3,-2.3998545E-2,2.1030798E0,9.99817E-1,6.74E2,9.99847E-1,2.7086673E0,-1.8715937E0,7.157414E-1,1.7806599E0,6.595557E-1,-6.2182695E-1,8.0221677E-1,-0E0],"split_indices":[22,8,13,8,0,1,9,0,0,27,0,1,14,0,0,0,28,28,0,0,1,0,0,0,27,27,26,26,0,0,26,0,0,0,0,27,27,28,0,0,0,0,27,1,27,0,0,0,0,0,0,0,0],"split_type":[0,0,0,0,0,0,0,0,0,0,0,0,0,0,0,0,0,0,0,0,0,0,0,0,0,0,0,0,0,0,0,0,0,0,0,0,0,0,0,0,0,0,0,0,0,0,0,0,0,0,0,0,0],"sum_hessian":[3.677E3,3.504E3,1.73E2,3.3E3,2.04E2,1.61E2,1.2E1,3.211E3,8.9E1,2.03E2,1E0,1.52E2,9E0,7E0,5E0,3E0,2E2,1.4E1,1.38E2,4E0,5E0,5E0,2E0,1E0,2E0,3E0,1.97E2,1E1,4E0,3E0,2E0,1E0,1E0,2E0,1E0,1.67E2,3E1,6E0,4E0,1E0,1E0,2.3E1,1.44E2,6E0,2.4E1,2E0,4E0,9.4E1,5E1,2E0,4E0,1.8E1,6E0],"tree_param":{"num_deleted":"0","num_feature":"33","num_nodes":"53","size_leaf_vector":"1"}},{"base_weights":[1.2660685E0,-8.2343507E-1,3.7790142E1,-1.2883812E0,7.025675E0,2.905241E1,8.752769E1,-3.444789E-1,-6.036591E-1,5.403593E0,8.103399E0,3.106788E1,2.8149045E0,9.938657E0,1.1908286E2,6.2501707E0,-1.7365408E0,1.6079762E1,3.4685993E1,-3.6991878E0,1.6046965E1,-1.2645198E0,3.8749986E0,3.4169888E1,8.8801615E-2,8.693476E0,3.974108E0,-4.7513337E0,2.0308945E0,8.358266E0,-3.206938E0,3.5676014E1,3.460507E0,1.9374432E1,-0E0,4.631732E-1,-5.881907E-1,1.0272074E1,3.0672271E0,1.2121001E-1,5.464792E0,-1.380998E0,-0E0,-0E0,7.9171133E-1,1.0633316E1,-1.382202E1,2.3502947E1,1.1769707E1,-1.1783335E0,2.5205464E0,5.5647078E0,1.1306971E-2,-8.7596565E-2,2.9236394E-1,2.9588297E-1,1.074621E1,4.7897406E0,-6.657559E-1,8.623929E-1,-1.0936077E0,1.929059E0,6.3264146E0,1.1959524E-1,-4.92577E-1,-4.021624E0,5.652632E0,-2.2837147E1,2.002418E0,2.5931158E1,-9.678556E0,1.6752124E-1,-2.055591E-2,-0E0,2.9512746E0,-2.6828912E-1,1.5201471E0,-8.8542044E-1,8.5624945E-1,-5.8578175E-1,3.3189735E-1,1.1750044E0,-6.262394E-1,1.7605071E0,-0E0,-0E0,-1.6225742E-1,2.0754822E-1,-1.7689068E0,-1.5882115E-1,-6.4049E0,3.360099E-1,7.989054E0,-3.3926885E0,4.597214E-1],"categories":[],"categories_nodes":[],"categories_segments":[],"categories_sizes":[],"default_left":[0,0,0,0,0,0,0,0,0,0,0,0,0,0,0,0,0,0,0,0,0,0,0,0,0,0,0,0,0,0,0,0,0,0,0,0,0,0,0,0,0,0,0,0,0,0,0,0,0,0,0,0,0,0,0,0,0,0,0,0,0,0,0,0,0,0,0,0,0,0,0,0,0,0,0,0,0,0,0,0,0,0,0,0,0,0,0,0,0,0,0,0,0,0,0],"id":11,"left_children":[1,3,5,7,9,11,13,-1,-1,15,-1,17,19,21,23,25,27,29,31,-1,33,35,-1,-1,-1,37,39,41,43,-1,45,47,49,51,-1,53,-1,55,57,59,61,-1,-1,63,-1,65,67,69,-1,-1,-1,-1,-1,-1,-1,71,73,75,77,-1,79,81,83,-1,85,87,-1,89,-1,91,93,-1,-1,-1,-1,-1,-1,-1,-1,-1,-1,-1,-1,-1,-1,-1,-1,-1,-1,-1,-1,-1,-1,-1,-1],"loss_changes":[2.772417E5,1.2627543E4,6.0779938E4,8.776855E0,5.558243E3,8.675E3,4.849075E4,0E0,0E0,1.2798628E3,0E0,3.6142344E3,7.2510864E3,1.0718885E3,1.35449375E4,6.066167E2,4.1272318E2,1.5480254E4,2.6276094E3,0E0,9.45E2,3.551046E1,0E0,0E0,0E0,3.3434326E2,6.02468E2,3.8858948E1,3.9692635E1,0E0,5.906784E3,1.6359844E3,1.06915E3,2.7535107E2,0E0,1.0979732E1,0E0,1.9849756E2,2.380098E2,1.9009953E2,9.767432E1,0E0,0E0,5.3601327E0,0E0,3.64338E3,5.787078E3,7.9703047E3,0E0,0E0,0E0,0E0,0E0,0E0,0E0,3.3998542E0,6.592969E1,1.7402167E2,2.7507968E2,0E0,1.1643803E2,4.0481656E2,5.031714E1,0E0,8.718052E-1,2.5112906E2,0E0,1.3266309E2,0E0,5.495793E3,6.100431E2,0E0,0E0,0E0,0E0,0E0,0E0,0E0,0E0,0E0,0E0,0E0,0E0,0E0,0E0,0E0,0E0,0E0,0E0,0E0,0E0,0E0,0E0,0E0,0E0],"parents":[2147483647,0,0,1,1,2,2,3,3,4,4,5,5,6,6,9,9,11,11,12,12,13,13,14,14,15,15,16,16,17,17,18,18,20,20,21,21,25,25,26,26,27,27,28,28,30,30,31,31,32,32,33,33,35,35,37,37,38,38,39,39,40,40,43,43,45,45,46,46,47,47,55,55,56,56,57,57,58,58,60,60,61,61,62,62,64,64,65,65,67,67,69,69,70,70],"right_children":[2,4,6,8,10,12,14,-1,-1,16,-1,18,20,22,24,26,28,30,32,-1,34,36,-1,-1,-1,38,40,42,44,-1,46,48,50,52,-1,54,-1,56,58,60,62,-1,-1,64,-1,66,68,70,-1,-1,-1,-1,-1,-1,-1,72,74,76,78,-1,80,82,84,-1,86,88,-1,90,-1,92,94,-1,-1,-1,-1,-1,-1,-1,-1,-1,-1,-1,-1,-1,-1,-1,-1,-1,-1,-1,-1,-1,-1,-1,-1],"split_conditions":[2.6E2,9E0,6.17917E1,3.61102E0,4E1,6.24698E-1,3.67898E0,-3.444789E-1,-6.036591E-1,6.26016E-1,8.103399E0,4.07091E-1,3.28462E1,3E1,2.807E3,6.10352E-5,9.15527E-5,4.06801E-1,4.08835E-1,-3.6991878E0,6.28643E-1,2.118E3,3.8749986E0,3.4169888E1,8.8801615E-2,6.25137E-1,4.07562E-1,6.28112E-1,4.09418E-1,8.358266E0,6.10352E-5,9.42545E-4,4.09018E-1,2.393E3,-0E0,2.093E3,-5.881907E-1,4.07194E-1,4.08913E-1,4.07091E-1,6.24349E-1,-1.380998E0,-0E0,4.07667E-1,7.9171133E-1,6.19098E-1,1.2207E-4,9.15527E-5,1.1769707E1,-1.1783335E0,2.5205464E0,5.5647078E0,1.1306971E-2,-8.7596565E-2,2.9236394E-1,4.06801E-1,6.23485E-1,4.07386E-1,6.25772E-1,8.623929E-1,1.2207E-4,6.24222E-1,4.09418E-1,1.1959524E-1,1.52588E-4,4.06983E-1,5.652632E0,6.18252E-1,2.002418E0,6.19567E-1,8.02E2,1.6752124E-1,-2.055591E-2,-0E0,2.9512746E0,-2.6828912E-1,1.5201471E0,-8.8542044E-1,8.5624945E-1,-5.8578175E-1,3.3189735E-1,1.1750044E0,-6.262394E-1,1.7605071E0,-0E0,-0E0,-1.6225742E-1,2.0754822E-1,-1.7689068E0,-1.5882115E-1,-6.4049E0,3.360099E-1,7.989054E0,-3.3926885E0,4.597214E-1],"split_indices":[12,8,13,10,0,31,10,0,0,31,0,28,14,0,1,26,26,28,28,0,31,1,0,0,0,31,28,31,28,0,26,29,28,1,0,1,0,28,28,28,31,0,0,28,0,31,26,26,0,0,0,0,0,0,0,28,31,28,31,0,26,31,28,0,26,28,0,31,0,31,1,0,0,0,0,0,0,0,0,0,0,0,0,0,0,0,0,0,0,0,0,0,0,0,0],"split_type":[0,0,0,0,0,0,0,0,0,0,0,0,0,0,0,0,0,0,0,0,0,0,0,0,0,0,0,0,0,0,0,0,0,0,0,0,0,0,0,0,0,0,0,0,0,0,0,0,0,0,0,0,0,0,0,0,0,0,0,0,0,0,0,0,0,0,0,0,0,0,0,0,0,0,0,0,0,0,0,0,0,0,0,0,0,0,0,0,0,0,0,0,0,0,0],"sum_hessian":[3.618E3,3.431E3,1.87E2,3.247E3,1.84E2,1.72E2,1.5E1,3.222E3,2.5E1,1.83E2,1E0,1.58E2,1.4E1,8E0,7E0,1.65E2,1.8E1,4.1E1,1.17E2,6E0,8E0,4E0,4E0,6E0,1E0,6.6E1,9.9E1,9E0,9E0,2E1,2.1E1,1.12E2,5E0,5E0,3E0,2E0,2E0,4.5E1,2.1E1,3.1E1,6.8E1,8E0,1E0,5E0,4E0,9E0,1.2E1,5.9E1,5.3E1,3E0,2E0,4E0,1E0,1E0,1E0,3E0,4.2E1,1.3E1,8E0,5E0,2.6E1,2E1,4.8E1,1E0,4E0,6E0,3E0,8E0,4E0,5.7E1,2E0,2E0,1E0,1E0,4.1E1,1E0,1.2E1,6E0,2E0,1.9E1,7E0,1.3E1,7E0,4.6E1,2E0,2E0,2E0,4E0,2E0,1E0,7E0,9E0,4.8E1,1E0,1E0],"tree_param":{"num_deleted":"0","num_feature":"33","num_nodes":"95","size_leaf_vector":"1"}},{"base_weights":[4.6460742E-1,-7.535596E-1,2.3855505E1,-9.3973863E-1,2.1849067E0,8.445219E0,3.107934E1,-2.5017807E-1,-5.6247026E-1,-1.2679532E0,3.0458372E0,2.1318813E1,1.605455E0,1.305135E1,4.0005722E1,-7.2068396E0,1.3918176E0,4.6300564E0,1.1455084E0,2.5472033E1,-1.498538E0,-3.1621368E0,7.8136406E0,2.1666536E1,-9.219827E0,5.52152E0,4.331608E1,-2.053081E0,-0E0,2.794144E0,-2.0934086E0,6.5672307E0,2.2227798E0,-1.1003661E0,4.6643004E0,-1.5475823E-1,2.7217655E1,2.9578963E-1,-7.72356E-1,4.0653787E0,-1.0784308E1,-2.3588202E0,1.4101314E1,-2.4197502E0,1.1652841E1,-3.0769494E0,7.755467E-1,3.712856E0,-7.9837027E0,1.733307E1,2.8118681E1,1.0741578E0,-5.480334E-1,1.0359087E0,-1.0035744E0,7.1680074E0,-7.947499E-1,-2.5158626E-1,3.5787585E0,1.9424481E0,-2.16118E0,5.5043063E0,2.6099408E-1,-4.199402E-2,7.8202176E0,-2.7186747E0,9.888914E0,2.165681E0,-4.892469E0,2.8349652E0,-1.1445512E1,5.791454E0,-1.7899234E0,-2.2624762E0,2.5908496E0,-9.762879E-3,2.9860416E-1,-2.4177783E0,1.101771E-2,5.10386E0,3.2643135E1,2.9511094E-1,-2.1106317E0,-1.6161148E-1,5.1383495E-1,-2.1827722E-2,2.0097966E0,-0E0,-2.5505844E-1,1.7733411E0,-2.0816495E0,-1.1593788E0,1.3969569E0,2.9125047E0,-9.9263966E-1,2.8326234E-1,-3.2145627E0,-0E0,5.961617E0,1.7023513E0,-4.1690046E-1,4.404559E0,-8.237525E0,-8.653771E-1,1.2865995E1,-3.9661171E0,8.394053E-1,-2.1113172E0,3.9640994E0,1.2054152E1,-7.6383386E0,-5.2665205E0,4.8018613E0,3.9189213E1,1.0785333E1,-0E0,-6.751437E-1,7.6772374E-1,-3.490751E-2,-7.1216315E-1,5.3697852E-3,-5.616412E-1,1.9638535E-1,8.975685E-1,-0E0,-3.3175752E-1,-0E0,-6.79373E-1,6.68797E-1,-1.2315364E0,2.5761735E-1,-1.5836327E-1,1.0572125E-1,-0E0,1.6884581E0,4.963173E-1,-0E0,-9.209761E-1,2.5624766E0,-2.6227357E0,2.2840622E-1,-0E0,3.7133102E0,1.7563776E0,-4.371258E-1,3.9605675E0,-5.8928543E-1,-2.9497838E0,-0E0,-2.5325968E0,-0E0,1.1178694E1,1.2017493E0,7.9094324E0,-3.055414E0],"categories":[],"categories_nodes":[],"categories_segments":[],"categories_sizes":[],"default_left":[0,0,0,0,0,0,0,0,0,0,0,0,0,0,0,0,0,0,0,0,0,0,0,0,0,0,0,0,0,0,0,0,0,0,0,0,0,0,0,0,0,0,0,0,0,0,0,0,0,0,0,0,0,0,0,0,0,0,0,0,0,0,0,0,0,0,0,0,0,0,0,0,0,0,0,0,0,0,0,0,0,0,0,0,0,0,0,0,0,0,0,0,0,0,0,0,0,0,0,0,0,0,0,0,0,0,0,0,0,0,0,0,0,0,0,0,0,0,0,0,0,0,0,0,0,0,0,0,0,0,0,0,0,0,0,0,0,0,0,0,0,0,0,0,0,0,0,0,0,0,0,0,0,0,0],"id":12,"left_children":[1,3,5,7,9,11,13,-1,-1,15,17,19,21,23,25,27,29,31,33,35,37,39,41,43,45,47,49,-1,-1,51,53,55,57,59,61,-1,63,-1,-1,65,67,69,71,73,-1,-1,75,-1,77,-1,79,-1,81,83,-1,85,87,89,91,93,95,97,99,-1,-1,101,103,-1,-1,-1,105,-1,107,-1,109,-1,-1,-1,-1,111,113,-1,115,-1,-1,-1,-1,-1,-1,117,119,121,-1,123,125,127,129,131,133,135,-1,137,139,-1,141,-1,-1,-1,143,145,147,149,-1,151,153,-1,-1,-1,-1,-1,-1,-1,-1,-1,-1,-1,-1,-1,-1,-1,-1,-1,-1,-1,-1,-1,-1,-1,-1,-1,-1,-1,-1,-1,-1,-1,-1,-1,-1,-1,-1,-1,-1,-1,-1],"loss_changes":[1.03369305E5,1.9035559E3,1.7373305E4,2.8303467E1,6.587119E2,5.825803E3,1.3943039E4,0E0,0E0,8.628416E2,4.4446362E2,2.662583E3,1.9232297E3,1.2223935E4,6.0942734E3,3.656555E1,2.5613556E2,2.5006873E2,7.743215E2,1.1548018E3,7.8780014E1,2.5623381E3,2.11298E3,2.2551514E4,5.7750867E2,3.0116997E3,3.520664E3,0E0,0E0,1.6199173E2,1.2772872E2,2.640973E2,2.005155E2,2.4273557E2,1.099762E2,0E0,1.0277852E3,0E0,0E0,1.3260894E3,4.374262E3,3.3178718E3,2.5766572E3,1.07388E3,0E0,0E0,6.557218E0,0E0,1.23421875E2,0E0,4.092121E3,0E0,6.718657E1,3.205066E1,0E0,1.0439111E2,2.092671E0,1.3832533E2,3.4278244E2,9.132274E1,1.4926147E2,8.922247E1,6.859591E1,0E0,0E0,1.1268535E3,1.0653413E3,0E0,0E0,0E0,1.1953882E3,0E0,8.1081995E2,0E0,3.0780308E3,0E0,0E0,0E0,0E0,3.6268262E3,2.1995508E3,0E0,1.6101803E1,0E0,0E0,0E0,0E0,0E0,0E0,4.627939E1,3.009195E1,4.6662598E1,0E0,1.39566345E1,4.50428E0,2.0361075E2,2.6065097E2,5.239806E0,5.9073303E1,3.472805E0,0E0,9.0181494E2,2.9496344E2,0E0,1.6905298E2,0E0,0E0,0E0,3.0495865E2,9.122556E2,4.0958923E2,4.11857E2,0E0,3.965664E2,1.2817771E4,0E0,0E0,0E0,0E0,0E0,0E0,0E0,0E0,0E0,0E0,0E0,0E0,0E0,0E0,0E0,0E0,0E0,0E0,0E0,0E0,0E0,0E0,0E0,0E0,0E0,0E0,0E0,0E0,0E0,0E0,0E0,0E0,0E0,0E0,0E0,0E0,0E0,0E0,0E0,0E0],"parents":[2147483647,0,0,1,1,2,2,3,3,4,4,5,5,6,6,9,9,10,10,11,11,12,12,13,13,14,14,15,15,16,16,17,17,18,18,19,19,20,20,21,21,22,22,23,23,24,24,25,25,26,26,29,29,30,30,31,31,32,32,33,33,34,34,36,36,39,39,40,40,41,41,42,42,43,43,46,46,48,48,50,50,52,52,53,53,55,55,56,56,57,57,58,58,59,59,60,60,61,61,62,62,65,65,66,66,70,70,72,72,74,74,79,79,80,80,82,82,89,89,90,90,91,91,93,93,94,94,95,95,96,96,97,97,98,98,99,99,101,101,102,102,104,104,108,108,109,109,110,110,111,111,113,113,114,114],"right_children":[2,4,6,8,10,12,14,-1,-1,16,18,20,22,24,26,28,30,32,34,36,38,40,42,44,46,48,50,-1,-1,52,54,56,58,60,62,-1,64,-1,-1,66,68,70,72,74,-1,-1,76,-1,78,-1,80,-1,82,84,-1,86,88,90,92,94,96,98,100,-1,-1,102,104,-1,-1,-1,106,-1,108,-1,110,-1,-1,-1,-1,112,114,-1,116,-1,-1,-1,-1,-1,-1,118,120,122,-1,124,126,128,130,132,134,136,-1,138,140,-1,142,-1,-1,-1,144,146,148,150,-1,152,154,-1,-1,-1,-1,-1,-1,-1,-1,-1,-1,-1,-1,-1,-1,-1,-1,-1,-1,-1,-1,-1,-1,-1,-1,-1,-1,-1,-1,-1,-1,-1,-1,-1,-1,-1,-1,-1,-1,-1,-1],"split_conditions":[2.6E2,2.7E1,4.07386E-1,3.69268E0,6.24349E-1,6.18556E-1,9.99847E-1,-2.5017807E-1,-5.6247026E-1,9.99695E-1,6.25137E-1,1.2207E-4,9.99908E-1,1.549E3,3.71216E0,4.09018E-1,4.08835E-1,6.10352E-5,9.15527E-5,9.99786E-1,9.99786E-1,6.10352E-5,4.06983E-1,4.08463E-1,4.56E2,5.88E2,6.2059E-1,-2.053081E0,-0E0,9.15527E-5,6.2402E-1,9.99908E-1,4.07877E-1,9.99603E-1,9.99786E-1,-1.5475823E-1,6.17841E-1,2.9578963E-1,-7.72356E-1,6.19098E-1,6.19098E-1,5.29E2,4.07091E-1,9.99786E-1,1.1652841E1,-3.0769494E0,9.99542E-1,3.712856E0,4.22736E-1,1.733307E1,4.07877E-1,1.0741578E0,2.28E2,6.10352E-5,-1.0035744E0,4.07194E-1,2.28E2,4.07284E-1,9.99756E-1,6.27125E-1,4.07757E-1,4.07284E-1,2.15464E-3,-4.199402E-2,7.8202176E0,4.06801E-1,8.02E2,2.165681E0,-4.892469E0,2.8349652E0,6.19567E-1,5.791454E0,8.02E2,-2.2624762E0,9.99817E-1,-9.762879E-3,2.9860416E-1,-2.4177783E0,1.101771E-2,6.21396E-1,6.21396E-1,2.9511094E-1,9.99756E-1,-1.6161148E-1,5.1383495E-1,-2.1827722E-2,2.0097966E0,-0E0,-2.5505844E-1,9.99756E-1,9.99847E-1,4.08913E-1,1.3969569E0,4.10177E-1,4.10177E-1,9.99756E-1,6.25772E-1,1.2207E-4,9.99451E-1,6.25772E-1,-4.1690046E-1,9.99847E-1,6.18808E-1,-8.653771E-1,9.99817E-1,-3.9661171E0,8.394053E-1,-2.1113172E0,9.15527E-5,8.02E2,6.10352E-5,4.07562E-1,4.8018613E0,1.2207E-4,9.99908E-1,-0E0,-6.751437E-1,7.6772374E-1,-3.490751E-2,-7.1216315E-1,5.3697852E-3,-5.616412E-1,1.9638535E-1,8.975685E-1,-0E0,-3.3175752E-1,-0E0,-6.79373E-1,6.68797E-1,-1.2315364E0,2.5761735E-1,-1.5836327E-1,1.0572125E-1,-0E0,1.6884581E0,4.963173E-1,-0E0,-9.209761E-1,2.5624766E0,-2.6227357E0,2.2840622E-1,-0E0,3.7133102E0,1.7563776E0,-4.371258E-1,3.9605675E0,-5.8928543E-1,-2.9497838E0,-0E0,-2.5325968E0,-0E0,1.1178694E1,1.2017493E0,7.9094324E0,-3.055414E0],"split_indices":[12,22,28,10,31,31,27,0,0,27,31,26,27,1,10,28,28,26,26,27,27,26,28,28,12,12,31,0,0,26,31,27,28,27,27,0,31,0,0,31,31,3,28,27,0,0,27,0,28,0,28,0,2,26,0,28,2,28,27,31,28,28,29,0,0,28,1,0,0,0,31,0,1,0,27,0,0,0,0,31,31,0,27,0,0,0,0,0,0,27,27,28,0,28,28,27,31,26,27,31,0,27,31,0,27,0,0,0,26,1,26,28,0,26,27,0,0,0,0,0,0,0,0,0,0,0,0,0,0,0,0,0,0,0,0,0,0,0,0,0,0,0,0,0,0,0,0,0,0,0,0,0,0,0,0],"split_type":[0,0,0,0,0,0,0,0,0,0,0,0,0,0,0,0,0,0,0,0,0,0,0,0,0,0,0,0,0,0,0,0,0,0,0,0,0,0,0,0,0,0,0,0,0,0,0,0,0,0,0,0,0,0,0,0,0,0,0,0,0,0,0,0,0,0,0,0,0,0,0,0,0,0,0,0,0,0,0,0,0,0,0,0,0,0,0,0,0,0,0,0,0,0,0,0,0,0,0,0,0,0,0,0,0,0,0,0,0,0,0,0,0,0,0,0,0,0,0,0,0,0,0,0,0,0,0,0,0,0,0,0,0,0,0,0,0,0,0,0,0,0,0,0,0,0,0,0,0,0,0,0,0,0,0],"sum_hessian":[3.61E3,3.44E3,1.7E2,3.242E3,1.98E2,6.1E1,1.09E2,3.22E3,2.2E1,3.8E1,1.6E2,1.4E1,4.7E1,4.4E1,6.5E1,7E0,3.1E1,7.9E1,8.1E1,1.1E1,3E0,2.9E1,1.8E1,3.2E1,1.2E1,8E0,5.7E1,6E0,1E0,2.4E1,7E0,3.4E1,4.5E1,5.3E1,2.8E1,1E0,1E1,1E0,2E0,1.7E1,1.2E1,9E0,9E0,1.9E1,1.3E1,9E0,3E0,5E0,3E0,1.1E1,4.6E1,1.7E1,7E0,3E0,4E0,3.2E1,2E0,1.8E1,2.7E1,1.1E1,4.2E1,2.1E1,7E0,1E0,9E0,1E1,7E0,3E0,9E0,3E0,6E0,4E0,5E0,6E0,1.3E1,1E0,2E0,2E0,1E0,1.1E1,3.5E1,4E0,3E0,1E0,2E0,1E0,3.1E1,1E0,1E0,8E0,1E1,7E0,2E1,9E0,2E0,1.4E1,2.8E1,2E0,1.9E1,5E0,2E0,5E0,5E0,1E0,6E0,5E0,1E0,1E0,4E0,6E0,7E0,9E0,2E0,2.1E1,1.4E1,1E0,2E0,3E0,5E0,7E0,3E0,5E0,2E0,6E0,3E0,1E0,1E0,5E0,9E0,2.1E1,7E0,1E0,1E0,1E0,1.8E1,4E0,1E0,3E0,2E0,4E0,1E0,1E0,5E0,2E0,2E0,5E0,1E0,2E0,5E0,1E0,8E0,1.8E1,3E0,6E0,8E0],"tree_param":{"num_deleted":"0","num_feature":"33","num_nodes":"155","size_leaf_vector":"1"}},{"base_weights":[4.608142E-1,-4.9546012E-1,1.7611319E1,-6.9171137E-1,2.8322332E0,1.9860733E1,-1.3557119E1,-6.6559577E-1,-2.1192918E0,1.4665636E0,4.031211E0,1.1955059E1,4.4048298E1,-4.3884244E0,-9.358293E-1,-6.717968E-1,-0E0,-3.1289506E0,2.3875086E0,2.580506E0,-4.611978E0,6.333144E0,2.1070206E0,4.151818E0,1.9443974E1,-3.2427914E0,4.8599716E1,2.7724528E-1,-5.632669E-1,-6.745791E-1,1.430534E-1,6.261528E-1,-9.237236E-2,-4.3192187E-1,-1.4518179E0,8.6362684E-1,-1.5099238E-1,3.449384E0,-4.1517156E-1,-0E0,-1.3333315E0,8.384679E0,-5.3552747E-1,-8.042173E-1,3.4587379E0,2.1059305E1,-1.851067E0,2.380083E1,-1.1523883E1,-1.4629126E0,3.218406E-1,5.4574142E1,6.0592337E0,-0E0,-1.825465E-1,9.906228E-1,-3.2344488E-3,-9.685073E-1,4.214135E0,2.9020033E0,-2.7916734E0,2.3334506E0,-0E0,1.9650228E0,-8.7534916E-1,6.838252E-1,-2.4392312E0,1.2211491E-1,5.298527E0,2.3409384E1,-5.1272506E-1,-6.5991464E0,8.646233E0,2.5955374E1,-2.1779811E0,7.2722845E-2,-3.6455734E0,1.8540741E1,6.9305176E1,1.699666E0,3.490871E-3,-0E0,1.1153102E0,-1.980416E0,8.1194484E-1,4.8229628E0,-0E0,8.107116E-1,-0E0,2.8721327E-1,-3.5640867E0,-3.893525E-1,3.4259913E0,-3.9236846E0,1.3363618E0,-3.446191E-1,1.7612771E0,5.916726E0,-3.8212818E-1,6.657665E0,-0E0,3.7358797E-1,-5.930251E-1,-1.5755291E0,-5.6362767E0,1.890767E1,-1.0055016E1,2.3607652E0,7.318872E0,-0E0,3.367923E-2,-3.779295E0,2.7100918E1,7.319926E1,-9.513045E-3,3.4073913E-1,-0E0,5.02042E-2,-6.57892E-1,-1.416306E-1,4.297717E-1,1.3625566E0,9.8093316E-2,-1.9649468E-1,3.3437786E-1,-1.1799453E0,-0E0,1.0201191E0,-0E0,3.5855538E-1,-1.4374217E0,5.7908475E-1,-1.5698487E-1,6.4023906E-1,-1.4417425E-1,1.697292E0,-0E0,-0E0,-1.0876415E-1,7.9450786E-1,-3.0430217E0,7.1263704E0,-3.1743803E0,-2.9021842E0,-0E0,2.1843276E0,-1.7102163E0,1.3460903E0,-2.8113732E0,7.5983205E0,2.0485778E-1,1.9774874E0,2.1969534E1],"categories":[],"categories_nodes":[],"categories_segments":[],"categories_sizes":[],"default_left":[0,0,0,0,0,0,0,0,0,0,0,0,0,0,0,0,0,0,0,0,0,0,0,0,0,0,0,0,0,0,0,0,0,0,0,0,0,0,0,0,0,0,0,0,0,0,0,0,0,0,0,0,0,0,0,0,0,0,0,0,0,0,0,0,0,0,0,0,0,0,0,0,0,0,0,0,0,0,0,0,0,0,0,0,0,0,0,0,0,0,0,0,0,0,0,0,0,0,0,0,0,0,0,0,0,0,0,0,0,0,0,0,0,0,0,0,0,0,0,0,0,0,0,0,0,0,0,0,0,0,0,0,0,0,0,0,0,0,0,0,0,0,0,0,0,0,0,0,0,0,0,0,0],"id":13,"left_children":[1,3,5,7,9,11,13,15,17,19,21,23,25,-1,27,29,31,33,35,37,39,41,43,45,47,49,51,-1,-1,53,-1,55,-1,-1,-1,-1,-1,57,59,-1,-1,61,63,65,67,69,71,73,75,-1,-1,77,79,-1,-1,81,-1,83,85,87,89,-1,-1,91,-1,-1,93,95,97,99,101,103,105,107,-1,109,-1,111,113,-1,-1,-1,115,117,119,121,123,-1,-1,-1,125,-1,127,129,131,-1,133,135,137,-1,-1,-1,-1,139,-1,141,143,145,-1,-1,-1,147,149,151,-1,-1,-1,-1,-1,-1,-1,-1,-1,-1,-1,-1,-1,-1,-1,-1,-1,-1,-1,-1,-1,-1,-1,-1,-1,-1,-1,-1,-1,-1,-1,-1,-1,-1,-1,-1,-1,-1,-1],"loss_changes":[5.9803504E4,2.2698022E3,1.6095359E4,1.01105225E2,2.4582886E2,2.9913742E4,4.3474512E2,1.5041138E1,3.12688E2,8.30163E2,2.7770483E2,8.022414E3,1.0576516E4,0E0,5.3749653E1,1.4499268E1,1.0380962E1,6.270108E1,5.861174E1,2.730963E2,3.5045074E1,6.072666E2,2.9955206E2,9.210449E3,1.2719324E4,1.9347705E2,6.4776953E3,0E0,0E0,6.254883E-1,0E0,7.0204983E0,0E0,0E0,0E0,0E0,0E0,3.063551E2,3.1038052E2,0E0,0E0,5.1875977E1,1.8291577E2,2.1447931E2,2.7764203E2,1.3704404E3,4.1578857E3,6.7540977E3,3.9787207E2,0E0,0E0,4.757461E3,3.756958E0,0E0,0E0,2.5824642E0,0E0,5.1941864E1,1.6243518E2,3.4851074E-1,1.1003168E2,0E0,0E0,1.2494268E2,0E0,0E0,1.9475096E2,8.587457E1,1.4363855E2,6.4369824E2,6.795424E1,3.6018845E3,6.9424453E3,1.0462539E3,0E0,1.0273072E-1,0E0,5.3547573E3,5.5028906E3,0E0,0E0,0E0,3.071354E0,2.5509651E1,2.3829674E1,2.4362305E1,2.6434258E1,0E0,0E0,0E0,6.0420074E1,0E0,1.9547363E1,2.281966E2,3.6956314E1,0E0,4.1355713E1,4.6200745E1,1.9877553E-2,0E0,0E0,0E0,0E0,2.590317E3,0E0,7.689627E3,1.03440796E2,1.1670756E3,0E0,0E0,0E0,1.3536051E3,1.7950879E2,3.9063828E3,0E0,0E0,0E0,0E0,0E0,0E0,0E0,0E0,0E0,0E0,0E0,0E0,0E0,0E0,0E0,0E0,0E0,0E0,0E0,0E0,0E0,0E0,0E0,0E0,0E0,0E0,0E0,0E0,0E0,0E0,0E0,0E0,0E0,0E0,0E0,0E0,0E0,0E0,0E0],"parents":[2147483647,0,0,1,1,2,2,3,3,4,4,5,5,6,6,7,7,8,8,9,9,10,10,11,11,12,12,14,14,15,15,16,16,17,17,18,18,19,19,20,20,21,21,22,22,23,23,24,24,25,25,26,26,29,29,31,31,37,37,38,38,41,41,42,42,43,43,44,44,45,45,46,46,47,47,48,48,51,51,52,52,55,55,57,57,58,58,59,59,60,60,63,63,66,66,67,67,68,68,69,69,70,70,71,71,72,72,73,73,75,75,77,77,78,78,82,82,83,83,84,84,85,85,86,86,90,90,92,92,93,93,94,94,96,96,97,97,98,98,103,103,105,105,106,106,107,107,111,111,112,112,113,113],"right_children":[2,4,6,8,10,12,14,16,18,20,22,24,26,-1,28,30,32,34,36,38,40,42,44,46,48,50,52,-1,-1,54,-1,56,-1,-1,-1,-1,-1,58,60,-1,-1,62,64,66,68,70,72,74,76,-1,-1,78,80,-1,-1,82,-1,84,86,88,90,-1,-1,92,-1,-1,94,96,98,100,102,104,106,108,-1,110,-1,112,114,-1,-1,-1,116,118,120,122,124,-1,-1,-1,126,-1,128,130,132,-1,134,136,138,-1,-1,-1,-1,140,-1,142,144,146,-1,-1,-1,148,150,152,-1,-1,-1,-1,-1,-1,-1,-1,-1,-1,-1,-1,-1,-1,-1,-1,-1,-1,-1,-1,-1,-1,-1,-1,-1,-1,-1,-1,-1,-1,-1,-1,-1,-1,-1,-1,-1,-1,-1],"split_conditions":[2.6E2,2.27E2,9.67E2,3.61102E0,4.08463E-1,2.66E2,2.093E3,2.35466E1,9.99573E-1,4.08247E-1,4.08835E-1,6.20812E-1,9.99237E-1,-4.3884244E0,2.118E3,9E0,2.42788E1,6.26016E-1,9.99634E-1,6.25456E-1,6.23792E-1,6.24919E-1,4.09018E-1,4.06801E-1,6.24698E-1,1.621E3,4.1674E-1,2.7724528E-1,-5.632669E-1,6.98039E0,1.430534E-1,6.10352E-5,-9.237236E-2,-4.3192187E-1,-1.4518179E0,8.6362684E-1,-1.5099238E-1,6.2402E-1,9.99725E-1,-0E0,-1.3333315E0,9.99908E-1,4.08694E-1,6.24478E-1,6.10352E-5,9.99969E-1,4.07757E-1,8.02E2,6.24919E-1,-1.4629126E0,3.218406E-1,4.06378E-1,2.393E3,-0E0,-1.825465E-1,6E1,-3.2344488E-3,9.99817E-1,1.52588E-4,1.2207E-4,4.07194E-1,2.3334506E0,-0E0,6.25298E-1,-8.7534916E-1,6.838252E-1,6.25137E-1,6.24817E-1,6.26417E-1,1.2207E-4,6.18252E-1,4.07562E-1,4.0808E-1,9.99359E-1,-2.1779811E0,6.10352E-5,-3.6455734E0,9.99847E-1,6.29379E-1,1.699666E0,3.490871E-3,-0E0,4.74545E1,2.28E2,4.06801E-1,6.25298E-1,6.24817E-1,8.107116E-1,-0E0,2.8721327E-1,6.25772E-1,-3.893525E-1,9.15527E-5,9.99725E-1,4.08913E-1,-3.446191E-1,9.99908E-1,9.99847E-1,1.52588E-4,6.657665E0,-0E0,3.7358797E-1,-5.930251E-1,9.99939E-1,-5.6362767E0,1.2207E-4,9.15527E-5,9.99298E-1,7.318872E0,-0E0,3.367923E-2,6.18808E-1,6.19567E-1,9.99268E-1,-9.513045E-3,3.4073913E-1,-0E0,5.02042E-2,-6.57892E-1,-1.416306E-1,4.297717E-1,1.3625566E0,9.8093316E-2,-1.9649468E-1,3.3437786E-1,-1.1799453E0,-0E0,1.0201191E0,-0E0,3.5855538E-1,-1.4374217E0,5.7908475E-1,-1.5698487E-1,6.4023906E-1,-1.4417425E-1,1.697292E0,-0E0,-0E0,-1.0876415E-1,7.9450786E-1,-3.0430217E0,7.1263704E0,-3.1743803E0,-2.9021842E0,-0E0,2.1843276E0,-1.7102163E0,1.3460903E0,-2.8113732E0,7.5983205E0,2.0485778E-1,1.9774874E0,2.1969534E1],"split_indices":[12,12,12,10,28,12,1,21,27,28,28,31,27,0,1,8,21,31,27,31,31,31,28,28,31,1,28,0,0,18,0,26,0,0,0,0,0,31,27,0,0,27,28,31,26,27,28,1,31,0,0,28,1,0,0,0,0,27,26,26,28,0,0,31,0,0,31,31,31,26,31,28,28,27,0,26,0,27,31,0,0,0,13,2,28,31,31,0,0,0,31,0,26,27,28,0,27,27,26,0,0,0,0,27,0,26,26,27,0,0,0,31,31,27,0,0,0,0,0,0,0,0,0,0,0,0,0,0,0,0,0,0,0,0,0,0,0,0,0,0,0,0,0,0,0,0,0,0,0,0,0,0,0],"split_type":[0,0,0,0,0,0,0,0,0,0,0,0,0,0,0,0,0,0,0,0,0,0,0,0,0,0,0,0,0,0,0,0,0,0,0,0,0,0,0,0,0,0,0,0,0,0,0,0,0,0,0,0,0,0,0,0,0,0,0,0,0,0,0,0,0,0,0,0,0,0,0,0,0,0,0,0,0,0,0,0,0,0,0,0,0,0,0,0,0,0,0,0,0,0,0,0,0,0,0,0,0,0,0,0,0,0,0,0,0,0,0,0,0,0,0,0,0,0,0,0,0,0,0,0,0,0,0,0,0,0,0,0,0,0,0,0,0,0,0,0,0,0,0,0,0,0,0,0,0,0,0,0,0],"sum_hessian":[3.629E3,3.446E3,1.83E2,3.262E3,1.84E2,1.74E2,9E0,3.219E3,4.3E1,9.7E1,8.7E1,1.42E2,3.2E1,5E0,4E0,3.193E3,2.6E1,3.8E1,5E0,8.7E1,1E1,2.9E1,5.8E1,7.7E1,6.5E1,3E0,2.9E1,1E0,3E0,3.192E3,1E0,9E0,1.7E1,3.3E1,5E0,4E0,1E0,6.7E1,2E1,1E0,9E0,2.1E1,8E0,1.9E1,3.9E1,1.4E1,6.3E1,5.9E1,6E0,1E0,2E0,2.3E1,6E0,2E0,3.19E3,5E0,4E0,9E0,5.8E1,7E0,1.3E1,2E1,1E0,5E0,3E0,4E0,1.5E1,1.8E1,2.1E1,1.2E1,2E0,4.6E1,1.7E1,5.7E1,2E0,2E0,4E0,1.3E1,1E1,5E0,1E0,1E0,4E0,6E0,3E0,4.9E1,9E0,6E0,1E0,1E0,1.2E1,1E0,4E0,1.1E1,4E0,1E1,8E0,1.9E1,2E0,1.1E1,1E0,1E0,1E0,4.2E1,4E0,1.1E1,6E0,4E0,5.3E1,1E0,1E0,5E0,8E0,9E0,1E0,3E0,1E0,1E0,5E0,1E0,2E0,4.5E1,4E0,7E0,2E0,8E0,4E0,3E0,1E0,2E0,9E0,3E0,1E0,7E0,1E0,1.7E1,2E0,1E0,1E0,3.3E1,9E0,1E1,1E0,5E0,1E0,3E0,1E0,3E0,2E0,7E0,1E0,3E0,6E0],"tree_param":{"num_deleted":"0","num_feature":"33","num_nodes":"153","size_leaf_vector":"1"}},{"base_weights":[7.463894E-1,3.220881E-1,5.1258034E1,-3.020746E-1,1.2749982E1,4.453707E0,9.343545E1,-5.2398175E-1,3.0863452E0,1.4100305E1,-6.9219146E0,1.2815005E1,-5.7073636E0,2.7029762E1,-0E0,-5.0441253E-1,-1.360989E0,3.44829E0,-2.7199252E0,1.0588801E1,1.0298605E1,-2.5303793E0,1.9886336E-1,3.5823953E0,8.878015E-2,-2.5373845E0,3.6151722E-1,-4.940893E-1,-3.6864692E-1,5.2320604E0,2.3657544E0,-3.37683E0,-0E0,1.5462165E1,-8.301899E0,-9.269652E-3,1.22743286E-1,7.557184E-1,-1.7727773E0,-1.3401073E-1,-9.719503E-3,-0E0,6.330899E0,-8.596665E-1,3.3528998E0,-1.0390545E0,7.384185E-3,3.4650242E-1,-2.8354168E-1,-9.7208185E0,1.841799E1,-1.4487823E1,1.2070521E1,-5.773578E-1,3.4014774E-3,-5.4257035E-2,9.165089E-2,1.412363E0,-1.0982134E0,-0E0,6.4050097E0,-1.6104671E0,6.896594E-1,3.6183772E0,-4.8616347E-1,-0E0,-1.1443986E1,2.8992448E0,5.2536397E0,-2.3710981E1,6.0329213E0,4.976789E0,-1.8215299E0,-0E0,7.393887E-2,4.313177E-3,1.7498167E0,4.4848958E-1,-7.338661E-1,6.653739E-1,1.3508049E0,-5.160243E-1,5.493307E-1,-3.2695704E0,-0E0,2.5079303E0,-1.891121E0,1.3675869E0,-7.6081357E0,-1.4329753E0,2.6273882E0],"categories":[],"categories_nodes":[],"categories_segments":[],"categories_sizes":[],"default_left":[0,0,0,0,0,0,0,0,0,0,0,0,0,0,0,0,0,0,0,0,0,0,0,0,0,0,0,0,0,0,0,0,0,0,0,0,0,0,0,0,0,0,0,0,0,0,0,0,0,0,0,0,0,0,0,0,0,0,0,0,0,0,0,0,0,0,0,0,0,0,0,0,0,0,0,0,0,0,0,0,0,0,0,0,0,0,0,0,0,0,0],"id":14,"left_children":[1,3,5,7,9,11,13,15,17,19,21,23,25,-1,-1,27,-1,29,31,-1,33,-1,35,-1,-1,-1,37,39,-1,41,43,45,47,49,51,-1,-1,-1,53,-1,55,57,59,61,63,-1,-1,-1,-1,65,67,69,71,-1,-1,-1,73,-1,-1,-1,75,77,-1,79,-1,81,83,85,-1,87,89,-1,-1,-1,-1,-1,-1,-1,-1,-1,-1,-1,-1,-1,-1,-1,-1,-1,-1,-1,-1],"loss_changes":[7.865248E4,2.8480455E4,5.610978E4,2.6378276E3,5.6170215E3,2.8065308E3,9.5929375E3,2.5135529E2,5.447385E2,1.1968172E4,3.4654614E2,1.1533447E1,4.4814038E2,0E0,0E0,1.7782532E1,0E0,2.6225024E2,3.6166992E1,0E0,1.6477682E4,0E0,2.0649672E0,0E0,0E0,0E0,1.30964E2,8.216553E-1,0E0,4.0300684E2,5.0404626E2,3.415132E1,3.0070057E1,1.1232773E4,6.7932964E3,0E0,0E0,0E0,1.4637489E1,0E0,9.395612E-1,6.598131E2,1.331665E1,1.4324446E2,2.250957E2,0E0,0E0,0E0,0E0,3.2090857E2,1.2382578E3,8.1485796E3,2.951785E3,0E0,0E0,0E0,6.7609626E-1,0E0,0E0,0E0,5.227295E0,1.9211823E2,0E0,4.3688354E1,0E0,8.573565E1,1.05285645E2,1.7974491E3,0E0,4.800285E3,1.2790564E3,0E0,0E0,0E0,0E0,0E0,0E0,0E0,0E0,0E0,0E0,0E0,0E0,0E0,0E0,0E0,0E0,0E0,0E0,0E0,0E0],"parents":[2147483647,0,0,1,1,2,2,3,3,4,4,5,5,6,6,7,7,8,8,9,9,10,10,11,11,12,12,15,15,17,17,18,18,20,20,22,22,26,26,27,27,29,29,30,30,31,31,32,32,33,33,34,34,38,38,40,40,41,41,42,42,43,43,44,44,49,49,50,50,51,51,52,52,56,56,60,60,61,61,63,63,65,65,66,66,67,67,69,69,70,70],"right_children":[2,4,6,8,10,12,14,16,18,20,22,24,26,-1,-1,28,-1,30,32,-1,34,-1,36,-1,-1,-1,38,40,-1,42,44,46,48,50,52,-1,-1,-1,54,-1,56,58,60,62,64,-1,-1,-1,-1,66,68,70,72,-1,-1,-1,74,-1,-1,-1,76,78,-1,80,-1,82,84,86,-1,88,90,-1,-1,-1,-1,-1,-1,-1,-1,-1,-1,-1,-1,-1,-1,-1,-1,-1,-1,-1,-1],"split_conditions":[1.1E1,2.9E1,4.01031E0,9E0,1.549E3,5.88E2,2.807E3,2.55E2,6.26417E-1,9.99664E-1,3.28462E1,9.99939E-1,2.093E3,2.7029762E1,-0E0,3.9703E0,-1.360989E0,9.99725E-1,9.99542E-1,1.0588801E1,4.08247E-1,-2.5303793E0,1.707E3,3.5823953E0,8.878015E-2,-2.5373845E0,2.118E3,6.31223E-1,-3.6864692E-1,6.24349E-1,4.07562E-1,4.10177E-1,9.99573E-1,9.99786E-1,9.99939E-1,-9.269652E-3,1.22743286E-1,7.557184E-1,6.24698E-1,-1.3401073E-1,9.99939E-1,4.07386E-1,9.99359E-1,6.25772E-1,6.26016E-1,-1.0390545E0,7.384185E-3,3.4650242E-1,-2.8354168E-1,9.99725E-1,6.18556E-1,6.21982E-1,6.22528E-1,-5.773578E-1,3.4014774E-3,-5.4257035E-2,4.70488E1,1.412363E0,-1.0982134E0,-0E0,4.07091E-1,6.23792E-1,6.896594E-1,9.99847E-1,-4.8616347E-1,6.24396E0,2.15464E-3,6.18252E-1,5.2536397E0,6.2059E-1,9.99695E-1,4.976789E0,-1.8215299E0,-0E0,7.393887E-2,4.313177E-3,1.7498167E0,4.4848958E-1,-7.338661E-1,6.653739E-1,1.3508049E0,-5.160243E-1,5.493307E-1,-3.2695704E0,-0E0,2.5079303E0,-1.891121E0,1.3675869E0,-7.6081357E0,-1.4329753E0,2.6273882E0],"split_indices":[8,22,9,8,1,12,1,12,31,27,14,27,1,0,0,9,0,27,27,0,28,0,1,0,0,0,1,31,0,31,28,28,27,27,27,0,0,0,31,0,27,28,27,31,31,0,0,0,0,27,31,31,31,0,0,0,13,0,0,0,28,31,0,27,0,16,29,31,0,31,27,0,0,0,0,0,0,0,0,0,0,0,0,0,0,0,0,0,0,0,0],"split_type":[0,0,0,0,0,0,0,0,0,0,0,0,0,0,0,0,0,0,0,0,0,0,0,0,0,0,0,0,0,0,0,0,0,0,0,0,0,0,0,0,0,0,0,0,0,0,0,0,0,0,0,0,0,0,0,0,0,0,0,0,0,0,0,0,0,0,0,0,0,0,0,0,0,0,0,0,0,0,0,0,0,0,0,0,0,0,0,0,0,0,0],"sum_hessian":[3.674E3,3.653E3,2.1E1,3.487E3,1.66E2,1.5E1,6E0,3.281E3,2.06E2,1.58E2,8E0,7E0,8E0,5E0,1E0,3.278E3,3E0,1.98E2,8E0,9E0,1.49E2,4E0,4E0,6E0,1E0,2E0,6E0,3.257E3,2.1E1,6E1,1.38E2,5E0,3E0,1.18E2,3.1E1,1E0,3E0,2E0,4E0,3.242E3,1.5E1,1.2E1,4.8E1,3.2E1,1.06E2,4E0,1E0,1E0,2E0,1E1,1.08E2,2.6E1,5E0,3E0,1E0,1.1E1,4E0,4E0,8E0,1E0,4.7E1,3.1E1,1E0,1.04E2,2E0,3E0,7E0,9E0,9.9E1,1.7E1,9E0,4E0,1E0,3E0,1E0,1E0,4.6E1,6E0,2.5E1,7.2E1,3.2E1,2E0,1E0,6E0,1E0,6E0,3E0,2E0,1.5E1,1E0,8E0],"tree_param":{"num_deleted":"0","num_feature":"33","num_nodes":"91","size_leaf_vector":"1"}},{"base_weights":[4.6965852E-1,2.3116653E-1,1.896518E1,-1.1612508E-1,1.283209E1,-3.776389E-1,3.0284915E0,-5.2139316E0,1.773983E1,-3.6984345E-1,-2.8821886E-1,-4.3492368E-1,5.5571675E0,-1.7546452E1,1.1913785E1,1.892774E1,-2.8861642E0,-0E0,-3.7002382E-1,-5.789786E0,3.1004777E0,2.2319045E0,1.3252707E1,-1.8371185E1,-0E0,4.1304665E0,1.0093846E0,5.7232175E0,2.0696796E1,-9.1951084E-1,1.055942E-2,-1.0084303E-1,-4.2702258E-2,3.8780084E0,-1.8818024E1,7.182217E-1,1.4334903E1,4.1588774E0,4.20721E-1,1.7497917E1,-9.21543E0,-5.148244E0,-8.706083E-2,7.0400727E-1,-4.598393E-1,-4.6814713E0,1.3447841E1,1.3157672E1,7.668979E0,-2.2241356E0,1.4427863E1,-1.6132379E-1,-5.2028494E0,-2.0077531E0,5.3823876E0,-0E0,4.1979165E0,-5.568796E-1,4.655135E0,-1.6900146E0,4.340465E0,1.2419933E0,2.8814589E1,-3.7936091E0,1.2438992E0,7.227939E0,-3.836318E0,4.268078E0,-4.5792574E-1,6.7791004E0,5.5477133E0,7.677336E-1,-2.6142454E0,4.882703E0,-4.136954E-1,-2.986849E0,3.8305837E-1,1.867088E0,-6.8656124E-2,1.755537E0,5.9050107E-1,-9.9571556E-1,8.878292E-1,1.4788126E0,-0E0,2.380572E0,-2.6571164E0,9.048535E0,-1.9938217E0,2.8629527E0,-2.4021804E-1,-1.295592E0,5.048531E0],"categories":[],"categories_nodes":[],"categories_segments":[],"categories_sizes":[],"default_left":[0,0,0,0,0,0,0,0,0,0,0,0,0,0,0,0,0,0,0,0,0,0,0,0,0,0,0,0,0,0,0,0,0,0,0,0,0,0,0,0,0,0,0,0,0,0,0,0,0,0,0,0,0,0,0,0,0,0,0,0,0,0,0,0,0,0,0,0,0,0,0,0,0,0,0,0,0,0,0,0,0,0,0,0,0,0,0,0,0,0,0,0,0],"id":15,"left_children":[1,3,-1,5,7,9,11,13,15,17,-1,19,21,23,25,27,29,-1,31,33,35,37,39,41,-1,-1,43,45,47,-1,-1,-1,-1,49,51,53,55,57,59,61,63,-1,-1,-1,-1,65,67,69,-1,71,73,-1,-1,75,77,-1,-1,-1,79,81,83,85,87,-1,-1,89,-1,-1,-1,91,-1,-1,-1,-1,-1,-1,-1,-1,-1,-1,-1,-1,-1,-1,-1,-1,-1,-1,-1,-1,-1,-1,-1],"loss_changes":[6.119612E4,1.6246689E4,0E0,2.973953E3,9.7371E3,1.0364319E1,2.467615E3,8.051102E3,2.5394902E3,3.2928467E-2,0E0,2.556219E3,3.8105059E3,2.7189502E2,4.5281616E2,6.083535E2,2.9043777E1,0E0,2.4627686E-2,7.4856733E3,2.0447825E3,4.059115E2,6.0075425E3,1.24583496E2,0E0,0E0,1.07668144E2,2.4399648E3,4.7085938E1,0E0,0E0,0E0,0E0,2.8225752E3,2.5166016E1,1.0986459E3,2.397461E2,2.7934406E2,7.0247235E2,7.4096475E3,1.5443882E3,0E0,0E0,0E0,0E0,2.8752212E3,8.429795E2,9.690869E2,0E0,1.5078174E3,1.2088093E3,0E0,0E0,1.8944783E3,3.0498785E2,0E0,0E0,0E0,1.026499E2,6.670527E2,1.4756702E2,3.131627E3,6.5562188E3,0E0,0E0,4.8545154E2,0E0,0E0,0E0,6.609754E3,0E0,0E0,0E0,0E0,0E0,0E0,0E0,0E0,0E0,0E0,0E0,0E0,0E0,0E0,0E0,0E0,0E0,0E0,0E0,0E0,0E0,0E0,0E0],"parents":[2147483647,0,0,1,1,3,3,4,4,5,5,6,6,7,7,8,8,9,9,11,11,12,12,13,13,14,14,15,15,16,16,18,18,19,19,20,20,21,21,22,22,23,23,26,26,27,27,28,28,33,33,34,34,35,35,36,36,37,37,38,38,39,39,40,40,45,45,46,46,47,47,49,49,50,50,53,53,54,54,58,58,59,59,60,60,61,61,62,62,65,65,69,69],"right_children":[2,4,-1,6,8,10,12,14,16,18,-1,20,22,24,26,28,30,-1,32,34,36,38,40,42,-1,-1,44,46,48,-1,-1,-1,-1,50,52,54,56,58,60,62,64,-1,-1,-1,-1,66,68,70,-1,72,74,-1,-1,76,78,-1,-1,-1,80,82,84,86,88,-1,-1,90,-1,-1,-1,92,-1,-1,-1,-1,-1,-1,-1,-1,-1,-1,-1,-1,-1,-1,-1,-1,-1,-1,-1,-1,-1,-1,-1],"split_conditions":[5.84052E1,2.64E2,1.896518E1,9E0,9.99786E-1,3.9703E0,9.42545E-4,3.28462E1,4.22436E-1,6.98039E0,-2.8821886E-1,4.0808E-1,7.01E2,9.15527E-5,1.549E3,9.99847E-1,3.65946E0,-0E0,6.17917E1,4.07757E-1,9.99939E-1,9.99756E-1,4.08913E-1,1.78699E1,-0E0,4.1304665E0,9.99542E-1,4.06983E-1,1.36026E-3,-9.1951084E-1,1.055942E-2,-1.0084303E-1,-4.2702258E-2,9.99847E-1,9.99695E-1,4.09018E-1,7.01E2,9.99359E-1,1.2207E-4,4.08362E-1,8.01E2,-5.148244E0,-8.706083E-2,7.0400727E-1,-4.598393E-1,6.10352E-5,9.15527E-5,2.66E2,7.668979E0,9.99786E-1,9.99908E-1,-1.6132379E-1,-5.2028494E0,9.99695E-1,4.09418E-1,-0E0,4.1979165E0,-5.568796E-1,9.99634E-1,9.99847E-1,2.15464E-3,9.99908E-1,1.2207E-4,-3.7936091E0,1.2438992E0,9.99817E-1,-3.836318E0,4.268078E0,-4.5792574E-1,9.99939E-1,5.5477133E0,7.677336E-1,-2.6142454E0,4.882703E0,-4.136954E-1,-2.986849E0,3.8305837E-1,1.867088E0,-6.8656124E-2,1.755537E0,5.9050107E-1,-9.9571556E-1,8.878292E-1,1.4788126E0,-0E0,2.380572E0,-2.6571164E0,9.048535E0,-1.9938217E0,2.8629527E0,-2.4021804E-1,-1.295592E0,5.048531E0],"split_indices":[24,12,0,8,27,9,29,14,28,18,0,28,1,26,1,27,10,0,13,28,27,27,28,18,0,0,27,28,29,0,0,0,0,27,27,28,1,27,26,28,1,0,0,0,0,26,26,12,0,27,27,0,0,27,28,0,0,0,27,27,29,27,26,0,0,27,0,0,0,27,0,0,0,0,0,0,0,0,0,0,0,0,0,0,0,0,0,0,0,0,0,0,0],"split_type":[0,0,0,0,0,0,0,0,0,0,0,0,0,0,0,0,0,0,0,0,0,0,0,0,0,0,0,0,0,0,0,0,0,0,0,0,0,0,0,0,0,0,0,0,0,0,0,0,0,0,0,0,0,0,0,0,0,0,0,0,0,0,0,0,0,0,0,0,0,0,0,0,0,0,0,0,0,0,0,0,0,0,0,0,0,0,0,0,0,0,0,0,0],"sum_hessian":[3.695E3,3.692E3,3E0,3.602E3,9E1,3.334E3,2.68E2,1.9E1,7.1E1,3.315E3,1.9E1,1.16E2,1.52E2,1.1E1,8E0,6.8E1,3E0,3E0,3.312E3,4.4E1,7.2E1,1.15E2,3.7E1,1E1,1E0,3E0,5E0,1.3E1,5.5E1,2E0,1E0,3.249E3,6.3E1,2.9E1,1.5E1,6.8E1,4E0,4.9E1,6.6E1,3.3E1,4E0,9E0,1E0,4E0,1E0,7E0,6E0,4.1E1,1.4E1,2.3E1,6E0,1E0,1.4E1,4.6E1,2.2E1,1E0,3E0,1E0,4.8E1,4.6E1,2E1,1.8E1,1.5E1,3E0,1E0,4E0,3E0,5E0,1E0,3.2E1,9E0,1.7E1,6E0,4E0,2E0,7E0,3.9E1,1.6E1,6E0,1.8E1,3E1,3.5E1,1.1E1,1.4E1,6E0,1.2E1,6E0,1.4E1,1E0,1E0,3E0,1.9E1,1.3E1],"tree_param":{"num_deleted":"0","num_feature":"33","num_nodes":"93","size_leaf_vector":"1"}},{"base_weights":[5.5269957E-1,-1.6947523E-1,1.3501105E1,-1.07605055E-1,-4.5029287E0,8.652885E0,6.6192085E1,-2.6161274E-1,2.26122E0,-3.6496797E0,1.7149357E1,1.962599E1,-4.513028E-1,-7.204867E-2,2.5012797E-1,1.7433953E0,2.2385855E0,-7.9760413E0,2.409468E1,2.2268595E1,6.066596E0,6.8649596E-1,-2.5353707E-2,5.8900416E-1,2.7474732E0,2.5585644E0,-1.6857077E1,6.9471984E0,3.6922388E-2,2.304982E1,-7.931032E-1,-5.0557184E-1,2.1914534E1,-0E0,9.634244E-1,1.5652941E0,-1.8576068E0,-5.426328E-1,3.0018651E0,-2.0870998E0,1.0280337E1,1.7413293E-1,-1.9618095E1,2.368241E1,-4.847751E-1,-7.284631E0,7.4663634E0,7.286658E0,-1.1170397E0,-0E0,1.0938873E0,2.213963E0,-1.1588538E0,2.5636055E0,-3.73743E0,4.613808E0,1.4265139E0,-2.221761E0,-0E0,3.3987153E0,1.9458027E0,-1.8609444E0,5.3593745E0,-7.3838666E-2,-2.2429073E1,1.2008044E1,3.0319174E1,3.1644378E0,-1.6174818E1,-3.3488107E0,4.6707835E0,3.2943168E-1,-0E0,1.0341359E0,1.9148722E-1,3.1472117E-1,-5.2516544E-1,-1.7285725E-1,9.9562E-1,-5.8714118E-2,-1.5341918E0,1.3001864E0,5.9590526E-2,-9.410853E-1,8.15704E-1,-9.6458286E-1,-2.5125778E-1,-1.1167837E0,1.4216936E0,1.7172835E0,-1.3898434E-1,1.6001363E0,-1.8253602E0,-6.1640806E0,-2.0486403E-1,1.2352874E-1,5.5529714E0,9.381956E0,2.4282045E0,4.830097E-1,-5.3426323E0,1.7564324E0,-2.4453373E0],"categories":[],"categories_nodes":[],"categories_segments":[],"categories_sizes":[],"default_left":[0,0,0,0,0,0,0,0,0,0,0,0,0,0,0,0,0,0,0,0,0,0,0,0,0,0,0,0,0,0,0,0,0,0,0,0,0,0,0,0,0,0,0,0,0,0,0,0,0,0,0,0,0,0,0,0,0,0,0,0,0,0,0,0,0,0,0,0,0,0,0,0,0,0,0,0,0,0,0,0,0,0,0,0,0,0,0,0,0,0,0,0,0,0,0,0,0,0,0,0,0,0,0],"id":16,"left_children":[1,3,5,7,-1,9,11,13,15,17,19,-1,-1,-1,21,23,-1,25,27,29,31,33,-1,35,37,39,41,-1,-1,43,-1,45,47,-1,49,51,53,-1,55,57,59,61,63,65,-1,67,69,-1,-1,-1,71,73,75,77,79,81,83,85,-1,-1,87,-1,89,91,93,95,97,-1,99,101,-1,-1,-1,-1,-1,-1,-1,-1,-1,-1,-1,-1,-1,-1,-1,-1,-1,-1,-1,-1,-1,-1,-1,-1,-1,-1,-1,-1,-1,-1,-1,-1,-1],"loss_changes":[3.37355E4,3.42609E3,4.300273E4,1.2471647E3,0E0,2.0032363E4,7.6472305E3,8.545593E0,4.850868E2,1.1828275E4,4.9620117E3,0E0,0E0,0E0,6.620722E0,2.1280682E2,0E0,7.895271E3,4.156211E2,2.1289492E3,5.2217E3,5.2442904E0,0E0,2.8639523E2,1.8795178E2,1.8259668E3,2.1800469E3,0E0,0E0,1.5889414E3,0E0,2.8748726E3,3.033121E3,0E0,2.7145987E0,1.7502621E2,3.8214847E2,0E0,1.8657623E2,1.5704025E1,8.1401855E1,9.1857886E2,2.0437373E3,1.8710625E3,0E0,6.6455977E3,3.1955574E3,0E0,0E0,0E0,2.411314E0,1.3559528E2,6.2906464E1,8.629788E1,1.672677E2,1.6142456E1,6.2612885E2,1.6496689E1,0E0,0E0,5.23925E2,0E0,1.3138998E2,9.6705554E2,3.5560547E1,3.9476562E3,5.0002734E2,0E0,1.9002759E3,1.6653782E3,0E0,0E0,0E0,0E0,0E0,0E0,0E0,0E0,0E0,0E0,0E0,0E0,0E0,0E0,0E0,0E0,0E0,0E0,0E0,0E0,0E0,0E0,0E0,0E0,0E0,0E0,0E0,0E0,0E0,0E0,0E0,0E0,0E0],"parents":[2147483647,0,0,1,1,2,2,3,3,5,5,6,6,7,7,8,8,9,9,10,10,14,14,15,15,17,17,18,18,19,19,20,20,21,21,23,23,24,24,25,25,26,26,29,29,31,31,32,32,34,34,35,35,36,36,38,38,39,39,40,40,41,41,42,42,43,43,45,45,46,46,50,50,51,51,52,52,53,53,54,54,55,55,56,56,57,57,60,60,62,62,63,63,64,64,65,65,66,66,68,68,69,69],"right_children":[2,4,6,8,-1,10,12,14,16,18,20,-1,-1,-1,22,24,-1,26,28,30,32,34,-1,36,38,40,42,-1,-1,44,-1,46,48,-1,50,52,54,-1,56,58,60,62,64,66,-1,68,70,-1,-1,-1,72,74,76,78,80,82,84,86,-1,-1,88,-1,90,92,94,96,98,-1,100,102,-1,-1,-1,-1,-1,-1,-1,-1,-1,-1,-1,-1,-1,-1,-1,-1,-1,-1,-1,-1,-1,-1,-1,-1,-1,-1,-1,-1,-1,-1,-1,-1,-1],"split_conditions":[4.01031E0,9.28E2,1.1E1,9E0,-4.5029287E0,9.99847E-1,1.354E3,1.95993E0,3.61782E1,4.3871E0,6.24396E0,1.962599E1,-4.513028E-1,-7.204867E-2,1.9607E0,6.24919E-1,2.2385855E0,6.19098E-1,9.99603E-1,4.08694E-1,1.2207E-4,9.99939E-1,-2.5353707E-2,4.08835E-1,9.99359E-1,5.29E2,2.71E2,6.9471984E0,3.6922388E-2,6.22528E-1,-7.931032E-1,9.99908E-1,9.99939E-1,-0E0,4.08286E1,9.99878E-1,6.24222E-1,-5.426328E-1,9.99725E-1,9.99786E-1,4.06983E-1,9.99359E-1,9.99664E-1,6.10352E-5,-4.847751E-1,4.06801E-1,6.19098E-1,7.286658E0,-1.1170397E0,-0E0,4.74545E1,2.28E2,6.23792E-1,4.08913E-1,9.15527E-5,6.27643E-1,9.99756E-1,2.8E1,-0E0,3.3987153E0,6.10352E-5,-1.8609444E0,4.08913E-1,4.32308E0,1.2207E-4,6.21018E-1,4.0808E-1,3.1644378E0,6.18556E-1,6.18252E-1,4.6707835E0,3.2943168E-1,-0E0,1.0341359E0,1.9148722E-1,3.1472117E-1,-5.2516544E-1,-1.7285725E-1,9.9562E-1,-5.8714118E-2,-1.5341918E0,1.3001864E0,5.9590526E-2,-9.410853E-1,8.15704E-1,-9.6458286E-1,-2.5125778E-1,-1.1167837E0,1.4216936E0,1.7172835E0,-1.3898434E-1,1.6001363E0,-1.8253602E0,-6.1640806E0,-2.0486403E-1,1.2352874E-1,5.5529714E0,9.381956E0,2.4282045E0,4.830097E-1,-5.3426323E0,1.7564324E0,-2.4453373E0],"split_indices":[9,12,8,8,0,27,12,23,14,9,16,0,0,0,23,31,0,31,27,28,26,27,0,28,27,3,2,0,0,31,0,27,27,0,13,27,31,0,27,27,28,27,27,26,0,28,31,0,0,0,13,2,31,28,26,31,27,0,0,0,26,0,28,9,26,31,28,0,31,31,0,0,0,0,0,0,0,0,0,0,0,0,0,0,0,0,0,0,0,0,0,0,0,0,0,0,0,0,0,0,0,0,0],"split_type":[0,0,0,0,0,0,0,0,0,0,0,0,0,0,0,0,0,0,0,0,0,0,0,0,0,0,0,0,0,0,0,0,0,0,0,0,0,0,0,0,0,0,0,0,0,0,0,0,0,0,0,0,0,0,0,0,0,0,0,0,0,0,0,0,0,0,0,0,0,0,0,0,0,0,0,0,0,0,0,0,0,0,0,0,0,0,0,0,0,0,0,0,0,0,0,0,0,0,0,0,0,0,0],"sum_hessian":[3.592E3,3.411E3,1.81E2,3.408E3,3E0,1.76E2,5E0,3.209E3,1.99E2,7.4E1,1.02E2,4E0,1E0,3.189E3,2E1,1.95E2,4E0,7E1,4E0,6.3E1,3.9E1,8E0,1.2E1,9.9E1,9.6E1,3.5E1,3.5E1,3E0,1E0,6.2E1,1E0,3.4E1,5E0,3E0,5E0,7.4E1,2.5E1,1E0,9.5E1,2.6E1,9E0,6E0,2.9E1,6.1E1,1E0,1.9E1,1.5E1,4E0,1E0,1E0,4E0,6.2E1,1.2E1,6E0,1.9E1,3.7E1,5.8E1,2.5E1,1E0,3E0,6E0,1E0,5E0,5E0,2.4E1,3.2E1,2.9E1,5E0,1.4E1,1E1,5E0,3E0,1E0,2.2E1,4E1,1E0,1.1E1,2E0,4E0,1.1E1,8E0,3.4E1,3E0,1.1E1,4.7E1,3E0,2.2E1,1E0,5E0,4E0,1E0,3E0,2E0,2.3E1,1E0,1.8E1,1.4E1,1.9E1,1E1,3E0,1.1E1,3E0,7E0],"tree_param":{"num_deleted":"0","num_feature":"33","num_nodes":"103","size_leaf_vector":"1"}},{"base_weights":[2.963524E-1,-3.1212333E-4,3.6199577E1,-5.540412E-2,1.5992717E1,-0E0,7.111528E1,-9.056236E-3,-9.60632E0,4.6045938E0,3.5977703E-2,-6.432574E0,6.7775197E0,2.0922283E1,-4.3975693E-1,-1.4009644E-1,2.919958E0,-2.548617E-1,-3.0245252E0,-2.1334248E0,-7.7005404E-1,2.1861696E0,-0E0,-1.147799E0,3.5302904E-2,6.4701724E0,-5.15138E-1,-0E0,-1.257699E-1,3.2295027E-1,-5.955524E-1,3.5851747E-2,-0E0,-2.2779498E-3,-1.5601103E1,-1.3204043E-1,7.196801E0,-6.753845E-1,1.1575525E1,-9.651256E0,9.780593E-1,1.110044E-1,-2.9640985E0,-1.928702E1,6.4960046E0,3.8328397E0,-1.6148606E-1,2.496826E0,5.050663E0,-6.6308928E0,9.126767E0,1.4502114E1,4.780847E0,1.127682E0,-3.4282732E0,5.669293E0,-2.9954523E-2,-6.0879704E-2,5.777821E-1,-4.2984977E-2,-9.8470026E-1,4.6564645E-1,-7.0527244E0,-5.2680457E-1,2.7335994E0,1.3043243E0,-3.551619E-1,-1.2447976E0,-3.3239987E-2,-2.155347E0,1.1935813E0,-1.3075098E-1,-3.00619E0,-7.581777E-1,3.2894247E0,5.3500853E0,1.1180859E0,-1.421191E0,3.0445962E0,-0E0,3.4083003E-1,2.6923618E0,-1.1326745E0],"categories":[],"categories_nodes":[],"categories_segments":[],"categories_sizes":[],"default_left":[0,0,0,0,0,0,0,0,0,0,0,0,0,0,0,0,0,0,0,0,0,0,0,0,0,0,0,0,0,0,0,0,0,0,0,0,0,0,0,0,0,0,0,0,0,0,0,0,0,0,0,0,0,0,0,0,0,0,0,0,0,0,0,0,0,0,0,0,0,0,0,0,0,0,0,0,0,0,0,0,0,0,0],"id":17,"left_children":[1,3,5,7,9,11,13,15,17,-1,-1,19,21,-1,-1,23,25,27,-1,-1,29,-1,31,33,35,37,39,-1,-1,-1,-1,-1,-1,41,43,45,47,49,51,53,55,57,59,61,63,65,67,69,-1,71,73,75,77,79,-1,81,-1,-1,-1,-1,-1,-1,-1,-1,-1,-1,-1,-1,-1,-1,-1,-1,-1,-1,-1,-1,-1,-1,-1,-1,-1,-1,-1],"loss_changes":[3.973508E4,3.2268699E3,3.869199E4,1.6105277E3,1.3872192E2,1.4883314E3,8.473914E3,1.4126919E3,2.0150916E2,0E0,0E0,6.378015E1,1.2549341E2,0E0,0E0,6.293036E2,1.9692931E3,1.46946E0,0E0,0E0,6.881502E1,0E0,2.0333311E-1,8.693183E3,3.6513127E3,2.9700103E3,1.3215913E3,0E0,0E0,0E0,0E0,0E0,0E0,1.7797542E2,4.374714E3,3.4220938E2,3.250603E3,2.9995332E3,2.1145508E2,6.097744E2,4.5269077E2,3.4221695E2,2.1565186E1,5.56787E3,5.933417E2,1.7976016E2,4.8787823E2,1.5420042E3,0E0,7.8818713E2,1.0598208E3,6.631201E2,2.4389614E3,2.0726986E0,0E0,1.1143047E3,0E0,0E0,0E0,0E0,0E0,0E0,0E0,0E0,0E0,0E0,0E0,0E0,0E0,0E0,0E0,0E0,0E0,0E0,0E0,0E0,0E0,0E0,0E0,0E0,0E0,0E0,0E0],"parents":[2147483647,0,0,1,1,2,2,3,3,4,4,5,5,6,6,7,7,8,8,11,11,12,12,15,15,16,16,17,17,20,20,22,22,23,23,24,24,25,25,26,26,33,33,34,34,35,35,36,36,37,37,38,38,39,39,40,40,41,41,42,42,43,43,44,44,45,45,46,46,47,47,49,49,50,50,51,51,52,52,53,53,55,55],"right_children":[2,4,6,8,10,12,14,16,18,-1,-1,20,22,-1,-1,24,26,28,-1,-1,30,-1,32,34,36,38,40,-1,-1,-1,-1,-1,-1,42,44,46,48,50,52,54,56,58,60,62,64,66,68,70,-1,72,74,76,78,80,-1,82,-1,-1,-1,-1,-1,-1,-1,-1,-1,-1,-1,-1,-1,-1,-1,-1,-1,-1,-1,-1,-1,-1,-1,-1,-1,-1,-1],"split_conditions":[1.1E1,4.3871E0,4.01031E0,1.96614E0,9.99603E-1,2.161E3,2.807E3,4.83636E1,7E0,4.6045938E0,3.5977703E-2,9.99756E-1,2.385E3,2.0922283E1,-4.3975693E-1,4.07961E-1,4.07284E-1,1.753E3,-3.0245252E0,-2.1334248E0,4.19475E-1,2.1861696E0,6.10352E-5,7.01E2,4.8E1,9.99847E-1,4.07386E-1,-0E0,-1.257699E-1,3.2295027E-1,-5.955524E-1,3.5851747E-2,-0E0,4.07757E-1,9.99969E-1,4.08247E-1,9.99939E-1,4.06983E-1,9.99908E-1,9.99786E-1,8.67E2,4.69E2,1.2207E-4,4.07562E-1,4.07442E-1,9.99908E-1,4.08587E-1,9.99786E-1,5.050663E0,7.03E2,6.10352E-5,4.06801E-1,6.10352E-5,7.03E2,-3.4282732E0,9.15527E-5,-2.9954523E-2,-6.0879704E-2,5.777821E-1,-4.2984977E-2,-9.8470026E-1,4.6564645E-1,-7.0527244E0,-5.2680457E-1,2.7335994E0,1.3043243E0,-3.551619E-1,-1.2447976E0,-3.3239987E-2,-2.155347E0,1.1935813E0,-1.3075098E-1,-3.00619E0,-7.581777E-1,3.2894247E0,5.3500853E0,1.1180859E0,-1.421191E0,3.0445962E0,-0E0,3.4083003E-1,2.6923618E0,-1.1326745E0],"split_indices":[8,9,9,23,27,1,1,13,20,0,0,27,1,0,0,28,28,1,0,0,28,0,26,1,13,27,28,0,0,0,0,0,0,28,27,28,27,28,27,27,1,1,26,28,28,27,28,27,0,1,26,28,26,1,0,26,0,0,0,0,0,0,0,0,0,0,0,0,0,0,0,0,0,0,0,0,0,0,0,0,0,0,0],"split_type":[0,0,0,0,0,0,0,0,0,0,0,0,0,0,0,0,0,0,0,0,0,0,0,0,0,0,0,0,0,0,0,0,0,0,0,0,0,0,0,0,0,0,0,0,0,0,0,0,0,0,0,0,0,0,0,0,0,0,0,0,0,0,0,0,0,0,0,0,0,0,0,0,0,0,0,0,0,0,0,0,0,0,0],"sum_hessian":[3.712E3,3.691E3,2.1E1,3.688E3,3E0,1.5E1,6E0,3.68E3,8E0,2E0,1E0,8E0,7E0,5E0,1E0,3.532E3,1.48E2,3E0,5E0,3E0,5E0,4E0,3E0,5.18E2,3.014E3,6.9E1,7.9E1,2E0,1E0,2E0,3E0,2E0,1E0,4.89E2,2.9E1,2.954E3,6E1,3.2E1,3.7E1,4E0,7.5E1,4.79E2,1E1,2.6E1,3E0,1.2E1,2.942E3,5.1E1,9E0,2.2E1,1E1,1.8E1,1.9E1,2E0,2E0,7E0,6.8E1,4.17E2,6.2E1,5E0,5E0,8E0,1.8E1,2E0,1E0,1.1E1,1E0,1.5E1,2.927E3,3E0,4.8E1,1.4E1,8E0,2E0,8E0,6E0,1.2E1,8E0,1.1E1,1E0,1E0,5E0,2E0],"tree_param":{"num_deleted":"0","num_feature":"33","num_nodes":"83","size_leaf_vector":"1"}},{"base_weights":[8.471457E-1,4.8451054E-1,6.14641E1,-1.454784E-1,1.3073278E1,5.896005E0,2.4305466E1,-1.8799862E-1,5.474119E-1,1.4961101E1,-2.0212228E0,-2.547107E-1,7.0123444E0,-1.7874198E-1,-6.081446E-1,3.7137508E0,-0E0,1.687693E1,-3.367223E0,-1.2403132E1,5.300791E0,-0E0,-8.9695655E-2,2.1000037E0,-3.3324778E-2,-1.6888101E-1,-8.607156E-1,-1.6609265E-1,1.166011E0,2.6784756E0,-9.5544004E-1,9.779371E0,2.1433138E1,1.9978273E1,-5.6914816E0,-1.674007E1,-4.8085722E-1,-1.6488338E-1,-3.571105E-1,-9.205597E-1,-0E0,9.063262E-2,-2.2027177E-1,2.8551456E-1,5.535215E0,3.8292692E0,-1.6704476E0,2.5868752E0,2.481616E1,-3.4972274E-1,2.5067823E1,-9.2005484E-2,6.404597E0,-5.2366157E0,6.1548364E-1,2.3459466E0,-2.9550664E0,-4.4979207E-2,-0E0,-9.790772E-2,-0E0,-2.5458372E-1,-0E0,2.8241148E0,-2.0500746E0,-4.7115207E-1,1.8636814E0,-1.0883515E0,5.8044252E0,-2.8899777E0,-5.385905E-1,1.634382E1,-3.5683331E0,-3.6491594E-1,9.277889E0,-6.71372E0,2.3263354E0,8.071127E0,7.686384E0,7.1802163E-1,-0E0,-0E0,-8.5511315E-1,1.5170778E0,-4.6139306E-1,6.46803E-2,-9.9800366E-1,-2.829692E-1,5.8274113E-2,7.625893E-3,-4.1466185E-1,-0E0,1.6521931E0,-7.818105E-2,-1.0116447E0,-7.9411656E-1,1.1763877E-2,5.5488315E0,8.9990485E-1,-2.5212858E0,1.125941E0,1.2836168E0,-1.9823014E0,1.0397805E0,-3.1358087E0,-8.891925E-1,4.2930684E0],"categories":[],"categories_nodes":[],"categories_segments":[],"categories_sizes":[],"default_left":[0,0,0,0,0,0,0,0,0,0,0,0,0,0,0,0,0,0,0,0,0,0,0,0,0,0,0,0,0,0,0,0,0,0,0,0,0,0,0,0,0,0,0,0,0,0,0,0,0,0,0,0,0,0,0,0,0,0,0,0,0,0,0,0,0,0,0,0,0,0,0,0,0,0,0,0,0,0,0,0,0,0,0,0,0,0,0,0,0,0,0,0,0,0,0,0,0,0,0,0,0,0,0,0,0,0,0],"id":18,"left_children":[1,3,5,7,9,11,-1,13,15,17,19,21,23,25,-1,27,29,31,33,35,-1,-1,-1,-1,-1,37,39,41,-1,43,45,47,49,51,-1,53,55,57,59,61,-1,-1,-1,63,65,67,69,71,73,75,77,-1,-1,-1,-1,79,81,-1,-1,-1,-1,-1,-1,83,85,87,-1,89,91,93,95,97,99,101,-1,103,-1,-1,105,-1,-1,-1,-1,-1,-1,-1,-1,-1,-1,-1,-1,-1,-1,-1,-1,-1,-1,-1,-1,-1,-1,-1,-1,-1,-1,-1,-1],"loss_changes":[7.973148E4,2.8885328E4,2.8720164E4,1.02313675E2,5.2697344E3,1.5561993E2,0E0,5.232583E1,3.4805267E2,6.0424336E3,8.496552E3,4.1196388E-1,1.12927795E2,1.7934296E1,0E0,8.635425E1,4.8305206E2,2.521625E3,1.3341507E4,1.1479417E3,0E0,0E0,0E0,0E0,0E0,4.9986267E-1,2.6300716E0,7.964817E0,0E0,3.083594E2,5.330108E2,7.270021E3,6.370129E3,1.2348071E3,0E0,1.3428613E3,1.8387508E2,4.58992E-1,2.9101372E-2,6.020355E-1,0E0,0E0,0E0,2.8023514E2,2.2367328E2,2.727572E2,1.535076E2,5.721078E3,5.6020186E3,1.7196241E3,3.3120156E3,0E0,0E0,0E0,0E0,5.3195343E0,7.1526794E0,0E0,0E0,0E0,0E0,0E0,0E0,3.8668863E2,1.0981552E2,9.318575E0,0E0,1.1133394E1,2.275592E1,1.08548096E2,1.1991875E2,4.007334E2,2.590252E3,8.940542E2,0E0,1.3525955E3,0E0,0E0,3.0098345E3,0E0,0E0,0E0,0E0,0E0,0E0,0E0,0E0,0E0,0E0,0E0,0E0,0E0,0E0,0E0,0E0,0E0,0E0,0E0,0E0,0E0,0E0,0E0,0E0,0E0,0E0,0E0,0E0],"parents":[2147483647,0,0,1,1,2,2,3,3,4,4,5,5,7,7,8,8,9,9,10,10,11,11,12,12,13,13,15,15,16,16,17,17,18,18,19,19,25,25,26,26,27,27,29,29,30,30,31,31,32,32,33,33,35,35,36,36,37,37,38,38,39,39,43,43,44,44,45,45,46,46,47,47,48,48,49,49,50,50,55,55,56,56,63,63,64,64,65,65,67,67,68,68,69,69,70,70,71,71,72,72,73,73,75,75,78,78],"right_children":[2,4,6,8,10,12,-1,14,16,18,20,22,24,26,-1,28,30,32,34,36,-1,-1,-1,-1,-1,38,40,42,-1,44,46,48,50,52,-1,54,56,58,60,62,-1,-1,-1,64,66,68,70,72,74,76,78,-1,-1,-1,-1,80,82,-1,-1,-1,-1,-1,-1,84,86,88,-1,90,92,94,96,98,100,102,-1,104,-1,-1,106,-1,-1,-1,-1,-1,-1,-1,-1,-1,-1,-1,-1,-1,-1,-1,-1,-1,-1,-1,-1,-1,-1,-1,-1,-1,-1,-1,-1],"split_conditions":[5.75E2,2.9E1,3.94643E0,9E0,6.24478E-1,9.99847E-1,2.4305466E1,2.55E2,9.99603E-1,1.2207E-4,4.3871E0,2.093E3,9.99939E-1,3.875E0,-6.081446E-1,6.24478E-1,4.07442E-1,9.99878E-1,9.99878E-1,1.621E3,5.300791E0,-0E0,-8.9695655E-2,2.1000037E0,-3.3324778E-2,2.35466E1,4.07284E-1,4.07284E-1,1.166011E0,6.24817E-1,6.2402E-1,6.21666E-1,4.06983E-1,9.99786E-1,-5.6914816E0,9.99756E-1,9.99268E-1,7E0,3.65753E0,9.98413E-1,-0E0,9.063262E-2,-2.2027177E-1,9.99786E-1,4.07284E-1,4.08463E-1,4.08463E-1,6.19098E-1,6.10352E-5,9.99939E-1,4.0808E-1,-9.2005484E-2,6.404597E0,-5.2366157E0,6.1548364E-1,1.707E3,4.41E2,-4.4979207E-2,-0E0,-9.790772E-2,-0E0,-2.5458372E-1,-0E0,6.24478E-1,6.10352E-5,1.2207E-4,1.8636814E0,2.28E2,9.99725E-1,6.24817E-1,6.24349E-1,9.99817E-1,9.99847E-1,8.01E2,9.277889E0,6.18808E-1,2.3263354E0,8.071127E0,9.99939E-1,7.1802163E-1,-0E0,-0E0,-8.5511315E-1,1.5170778E0,-4.6139306E-1,6.46803E-2,-9.9800366E-1,-2.829692E-1,5.8274113E-2,7.625893E-3,-4.1466185E-1,-0E0,1.6521931E0,-7.818105E-2,-1.0116447E0,-7.9411656E-1,1.1763877E-2,5.5488315E0,8.9990485E-1,-2.5212858E0,1.125941E0,1.2836168E0,-1.9823014E0,1.0397805E0,-3.1358087E0,-8.891925E-1,4.2930684E0],"split_indices":[12,22,9,8,31,27,0,12,27,26,9,1,27,9,0,31,28,27,27,1,0,0,0,0,0,21,28,28,0,31,31,31,28,27,0,27,27,8,9,27,0,0,0,27,28,28,28,31,26,27,28,0,0,0,0,1,12,0,0,0,0,0,0,31,26,26,0,2,27,31,31,27,27,1,0,31,0,0,27,0,0,0,0,0,0,0,0,0,0,0,0,0,0,0,0,0,0,0,0,0,0,0,0,0,0,0,0],"split_type":[0,0,0,0,0,0,0,0,0,0,0,0,0,0,0,0,0,0,0,0,0,0,0,0,0,0,0,0,0,0,0,0,0,0,0,0,0,0,0,0,0,0,0,0,0,0,0,0,0,0,0,0,0,0,0,0,0,0,0,0,0,0,0,0,0,0,0,0,0,0,0,0,0,0,0,0,0,0,0,0,0,0,0,0,0,0,0,0,0,0,0,0,0,0,0,0,0,0,0,0,0,0,0,0,0,0,0],"sum_hessian":[3.638E3,3.626E3,1.2E1,3.462E3,1.64E2,8E0,4E0,3.272E3,1.9E2,1.46E2,1.8E1,2E0,6E0,3.269E3,3E0,2E1,1.7E2,1.33E2,1.3E1,1.5E1,3E0,1E0,1E0,5E0,1E0,3.238E3,3.1E1,3E0,1.7E1,4E1,1.3E2,6.4E1,6.9E1,5E0,8E0,8E0,7E0,3.202E3,3.6E1,2.9E1,2E0,2E0,1E0,2.8E1,1.2E1,1.1E1,1.19E2,5.1E1,1.3E1,1.1E1,5.8E1,2E0,3E0,7E0,1E0,3E0,4E0,3.164E3,3.8E1,3.5E1,1E0,2.8E1,1E0,1.3E1,1.5E1,3E0,9E0,4E0,7E0,4.9E1,7E1,1.1E1,4E1,6E0,7E0,8E0,3E0,4E1,1.8E1,1E0,2E0,1E0,3E0,7E0,6E0,9E0,6E0,1E0,2E0,2E0,2E0,1E0,6E0,1.6E1,3.3E1,7E0,6.3E1,4E0,7E0,2.2E1,1.8E1,5E0,1E0,3E0,5E0,1E1,8E0],"tree_param":{"num_deleted":"0","num_feature":"33","num_nodes":"107","size_leaf_vector":"1"}},{"base_weights":[6.281991E-1,-9.729173E-2,1.32891E1,-3.105882E-2,-5.2842784E0,9.399867E0,5.5775135E1,-5.8931064E-2,5.619003E0,-1.3989749E0,1.280148E1,1.706758E1,-1.0503134E0,-1.3954826E-1,8.0808276E-1,1.8443128E0,-8.4251575E-2,-3.862117E0,3.2723873E0,5.6802697E0,1.9375286E1,-9.661422E-2,-2.1756737E0,2.239938E0,-6.1485913E-2,1.9882708E0,-7.431856E0,1.3320326E1,-2.5528762E0,1.9956366E1,-5.006489E-1,-1.16443E-1,1.9866536E0,1.0454963E0,-3.2538762E0,2.8773105E0,-2.6315767E-1,-2.5891492E-1,2.1339087E0,1.6014189E0,-1.1690333E-1,3.7110977E0,-1.0502692E1,-1.315041E-1,7.0430813E0,-1.0234064E1,1.1479578E1,2.0542562E1,-4.801594E-1,-8.778145E-2,-3.172021E0,2.690464E0,-2.753785E-1,2.2251356E0,-8.823083E-1,-3.6514676E0,8.7796867E-1,-1.4656584E-1,3.683087E0,-2.1178417E0,3.3588102E0,-1.5155799E0,-9.613605E-3,1.0284569E0,-5.990078E-1,-2.1825045E-1,4.8079333E0,-1.2293472E1,-2.796693E-1,3.8789494E0,-2.8398366E0,1.3576858E1,-1.820495E1,-1.8409748E0,1.5664114E1,7.088346E0,6.273565E0,-3.0078955E-2,8.5214126E-1,-1.1703745E0,2.3712744E-1,-1.267265E-1,8.96275E-1,-8.8976115E-2,-0E0,9.3261254E-1,-1.00726336E-1,2.8030595E-1,-5.9149086E-1,-4.188194E-2,-1.1465635E0,2.5373942E-1,-0E0,8.1310755E-1,-7.4290115E-1,1.847763E-2,1.4038178E0,-8.197632E-1,1.1997428E-1,1.1608199E0,-1.4654806E-1,-8.158992E-1,5.0711405E-2,3.4274942E-1,-3.142844E-2,-2.0422578E-1,-0E0,1.8133603E0,-6.418772E-2,-3.4591553E0,-2.3949723E-1,-9.63728E-2,-0E0,-9.175938E-1,1.5362761E0,-0E0,4.2019396E0,-5.995453E0,6.732238E-1,-1.1549584E0,5.4509845E0,5.6030207E0,-3.2777429E0],"categories":[],"categories_nodes":[],"categories_segments":[],"categories_sizes":[],"default_left":[0,0,0,0,0,0,0,0,0,0,0,0,0,0,0,0,0,0,0,0,0,0,0,0,0,0,0,0,0,0,0,0,0,0,0,0,0,0,0,0,0,0,0,0,0,0,0,0,0,0,0,0,0,0,0,0,0,0,0,0,0,0,0,0,0,0,0,0,0,0,0,0,0,0,0,0,0,0,0,0,0,0,0,0,0,0,0,0,0,0,0,0,0,0,0,0,0,0,0,0,0,0,0,0,0,0,0,0,0,0,0,0,0,0,0,0,0,0,0,0,0,0,0],"id":19,"left_children":[1,3,5,7,-1,9,11,13,15,17,19,-1,-1,21,23,-1,-1,25,-1,27,29,31,33,35,37,39,41,43,45,47,-1,49,51,53,55,57,59,61,63,-1,-1,65,67,69,-1,71,73,75,-1,77,79,81,83,85,87,89,91,93,95,97,99,101,103,-1,105,-1,107,109,111,113,-1,115,117,-1,119,121,-1,-1,-1,-1,-1,-1,-1,-1,-1,-1,-1,-1,-1,-1,-1,-1,-1,-1,-1,-1,-1,-1,-1,-1,-1,-1,-1,-1,-1,-1,-1,-1,-1,-1,-1,-1,-1,-1,-1,-1,-1,-1,-1,-1,-1,-1,-1],"loss_changes":[3.3487246E4,4.3879673E3,2.7455664E4,5.3186365E2,0E0,7.27542E3,8.874043E3,2.4000436E2,1.5547968E2,2.239899E3,5.7886367E3,0E0,0E0,2.6836136E2,3.701139E2,0E0,0E0,1.274654E3,0E0,5.6736973E3,1.2965879E3,1.25638855E2,2.591932E2,1.9216266E2,8.249789E1,3.0147183E2,1.6082557E3,7.899167E3,6.3566445E3,1.3104746E3,0E0,2.5920505E2,5.8965706E1,7.367454E1,1.2109949E2,2.3520337E2,2.7018E2,5.333865E1,1.0128593E2,0E0,0E0,1.19928955E2,4.935332E2,1.7201783E3,0E0,9.319292E3,2.694687E3,8.649961E2,0E0,2.28305E2,1.7440155E2,6.880408E1,3.9102674E-2,7.62499E1,6.1213936E1,8.19212E1,3.8482857E-1,3.0439502E2,3.7811053E2,8.1858154E1,8.1575455E1,8.593747E1,2.076404E1,0E0,1.1579847E0,0E0,1.622041E2,1.796875E-1,3.2949936E-1,5.778254E2,0E0,3.483855E2,3.1689268E3,0E0,2.7071045E3,9.119464E3,0E0,0E0,0E0,0E0,0E0,0E0,0E0,0E0,0E0,0E0,0E0,0E0,0E0,0E0,0E0,0E0,0E0,0E0,0E0,0E0,0E0,0E0,0E0,0E0,0E0,0E0,0E0,0E0,0E0,0E0,0E0,0E0,0E0,0E0,0E0,0E0,0E0,0E0,0E0,0E0,0E0,0E0,0E0,0E0,0E0,0E0,0E0],"parents":[2147483647,0,0,1,1,2,2,3,3,5,5,6,6,7,7,8,8,9,9,10,10,13,13,14,14,17,17,19,19,20,20,21,21,22,22,23,23,24,24,25,25,26,26,27,27,28,28,29,29,31,31,32,32,33,33,34,34,35,35,36,36,37,37,38,38,41,41,42,42,43,43,45,45,46,46,47,47,49,49,50,50,51,51,52,52,53,53,54,54,55,55,56,56,57,57,58,58,59,59,60,60,61,61,62,62,64,64,66,66,67,67,68,68,69,69,71,71,72,72,74,74,75,75],"right_children":[2,4,6,8,-1,10,12,14,16,18,20,-1,-1,22,24,-1,-1,26,-1,28,30,32,34,36,38,40,42,44,46,48,-1,50,52,54,56,58,60,62,64,-1,-1,66,68,70,-1,72,74,76,-1,78,80,82,84,86,88,90,92,94,96,98,100,102,104,-1,106,-1,108,110,112,114,-1,116,118,-1,120,122,-1,-1,-1,-1,-1,-1,-1,-1,-1,-1,-1,-1,-1,-1,-1,-1,-1,-1,-1,-1,-1,-1,-1,-1,-1,-1,-1,-1,-1,-1,-1,-1,-1,-1,-1,-1,-1,-1,-1,-1,-1,-1,-1,-1,-1,-1,-1],"split_conditions":[4.01031E0,3.9703E0,4.97801E1,5.05247E1,-5.2842784E0,9.99786E-1,2.807E3,6.24698E-1,4.22436E-1,4.3871E0,9.42545E-4,1.706758E1,-1.0503134E0,2.29E2,4.09418E-1,1.8443128E0,-8.4251575E-2,9.99237E-1,3.2723873E0,6.20241E-1,4.08694E-1,6.24349E-1,9.99756E-1,1.76301E-3,1.2207E-4,2.8E1,6.19098E-1,6.1931E-1,6.21666E-1,6.22528E-1,-5.006489E-1,6.2402E-1,4.09175E-1,4.07386E-1,1.2207E-4,4.07667E-1,4.09018E-1,9.99573E-1,6.74E2,1.6014189E0,-1.1690333E-1,6.18252E-1,3.28462E1,4.07386E-1,7.0430813E0,9.99847E-1,4.07877E-1,4.07091E-1,-4.801594E-1,2.25E2,9.99908E-1,9.99634E-1,2.6E1,6.24222E-1,6.10352E-5,6.03372E-1,1.52588E-4,9.99725E-1,6.2502E-1,6.25772E-1,6.26016E-1,4.10177E-1,4.10177E-1,1.0284569E0,9.99603E-1,-2.1825045E-1,6.18808E-1,1.2207E-4,1.707E3,9.99847E-1,-2.8398366E0,6.20812E-1,9.99969E-1,-1.8409748E0,9.99847E-1,6.19098E-1,6.273565E0,-3.0078955E-2,8.5214126E-1,-1.1703745E0,2.3712744E-1,-1.267265E-1,8.96275E-1,-8.8976115E-2,-0E0,9.3261254E-1,-1.00726336E-1,2.8030595E-1,-5.9149086E-1,-4.188194E-2,-1.1465635E0,2.5373942E-1,-0E0,8.1310755E-1,-7.4290115E-1,1.847763E-2,1.4038178E0,-8.197632E-1,1.1997428E-1,1.1608199E0,-1.4654806E-1,-8.158992E-1,5.0711405E-2,3.4274942E-1,-3.142844E-2,-2.0422578E-1,-0E0,1.8133603E0,-6.418772E-2,-3.4591553E0,-2.3949723E-1,-9.63728E-2,-0E0,-9.175938E-1,1.5362761E0,-0E0,4.2019396E0,-5.995453E0,6.732238E-1,-1.1549584E0,5.4509845E0,5.6030207E0,-3.2777429E0],"split_indices":[9,9,24,24,0,27,1,31,28,9,29,0,0,12,28,0,0,27,0,31,28,31,27,29,26,0,31,31,31,31,0,31,28,28,26,28,28,27,1,0,0,31,14,28,0,27,28,28,0,12,27,27,0,31,26,31,26,27,31,31,31,28,28,0,27,0,31,26,1,27,0,31,27,0,27,31,0,0,0,0,0,0,0,0,0,0,0,0,0,0,0,0,0,0,0,0,0,0,0,0,0,0,0,0,0,0,0,0,0,0,0,0,0,0,0,0,0,0,0,0,0,0,0],"split_type":[0,0,0,0,0,0,0,0,0,0,0,0,0,0,0,0,0,0,0,0,0,0,0,0,0,0,0,0,0,0,0,0,0,0,0,0,0,0,0,0,0,0,0,0,0,0,0,0,0,0,0,0,0,0,0,0,0,0,0,0,0,0,0,0,0,0,0,0,0,0,0,0,0,0,0,0,0,0,0,0,0,0,0,0,0,0,0,0,0,0,0,0,0,0,0,0,0,0,0,0,0,0,0,0,0,0,0,0,0,0,0,0,0,0,0,0,0,0,0,0,0,0,0],"sum_hessian":[3.631E3,3.443E3,1.88E2,3.441E3,2E0,1.83E2,5E0,3.434E3,7E0,4.5E1,1.38E2,4E0,1E0,3.152E3,2.82E2,5E0,2E0,4.4E1,1E0,7.5E1,6.3E1,3.098E3,5.4E1,1.02E2,1.8E2,1.8E1,2.6E1,3.6E1,3.9E1,6.2E1,1E0,3.079E3,1.9E1,1.3E1,4.1E1,8.1E1,2.1E1,1.74E2,6E0,2E0,1.6E1,5E0,2.1E1,2.2E1,1.4E1,2.7E1,1.2E1,6.1E1,1E0,3.061E3,1.8E1,1.4E1,5E0,8E0,5E0,3.9E1,2E0,1.8E1,6.3E1,1.7E1,4E0,1.9E1,1.55E2,2E0,4E0,1E0,4E0,1.6E1,5E0,2E1,2E0,5E0,2.2E1,1E0,1.1E1,1.6E1,4.5E1,3.049E3,1.2E1,1.4E1,4E0,2E0,1.2E1,1E0,4E0,4E0,4E0,2E0,3E0,8E0,3.1E1,1E0,1E0,7E0,1.1E1,2.2E1,4.1E1,1.2E1,5E0,3E0,1E0,7E0,1.2E1,2E0,1.53E2,1E0,3E0,1E0,3E0,1.4E1,2E0,2E0,3E0,2E0,1.8E1,2E0,3E0,1.8E1,4E0,2E0,9E0,9E0,7E0],"tree_param":{"num_deleted":"0","num_feature":"33","num_nodes":"123","size_leaf_vector":"1"}},{"base_weights":[1.6073886E-1,-6.97055E-2,3.5079636E1,-1.2871699E-1,5.0609565E0,9.951242E-1,5.3997547E1,-8.618618E-2,-7.985182E0,2.8130565E0,-4.8790705E-1,1.639828E1,-1.0234429E0,-2.9774265E-2,-1.0628128E0,-2.7182941E0,-4.9318814E-1,1.030423E0,-1.15174055E-1,-8.810043E-2,8.29467E-1,1.2008301E0,-6.365888E0,6.7437536E-1,-3.793821E-1,-8.524559E-2,-0E0,-8.411961E-2,-4.2380694E-1,-0E0,2.8643134E0,-4.1632586E0,6.061869E0,-1.0298738E1,6.9753566E0,1.9809821E-1,-0E0,-8.9118764E-2,7.4367887E-1,-0E0,-5.4526955E-1,-2.0014462E0,6.457663E-1,8.682427E-1,8.6165047E-1,7.039134E-1,-1.2976754E1,2.4629056E0,9.394233E0,-1.605696E0,-2.0669264E1,1.1440792E1,-1.8905816E0,-2.45001E-2,-0E0,-0E0,2.6495275E-1,-1.6414037E-1,-0E0,-5.950434E-1,-3.6480065E-2,5.479889E-1,-3.1148465E-2,5.363981E-1,-3.1608114E-1,-7.5084144E-1,2.2673562E0,2.5946512E0,-6.392093E0,2.2674007E0,-1.4134892E0,3.4708445E0,5.092257E-1,-1.717864E0,2.4716017E0,-6.320182E0,2.6952425E-1,3.400881E0,-3.3193614E-2,5.7454056E-1,-1.1784071E0],"categories":[],"categories_nodes":[],"categories_segments":[],"categories_sizes":[],"default_left":[0,0,0,0,0,0,0,0,0,0,0,0,0,0,0,0,0,0,0,0,0,0,0,0,0,0,0,0,0,0,0,0,0,0,0,0,0,0,0,0,0,0,0,0,0,0,0,0,0,0,0,0,0,0,0,0,0,0,0,0,0,0,0,0,0,0,0,0,0,0,0,0,0,0,0,0,0,0,0,0,0],"id":20,"left_children":[1,3,5,7,-1,9,11,13,15,17,-1,-1,-1,19,21,-1,23,-1,25,27,29,31,33,35,-1,-1,-1,37,39,41,43,45,47,49,51,-1,-1,53,55,-1,57,59,61,-1,63,65,67,69,71,73,75,77,79,-1,-1,-1,-1,-1,-1,-1,-1,-1,-1,-1,-1,-1,-1,-1,-1,-1,-1,-1,-1,-1,-1,-1,-1,-1,-1,-1,-1],"loss_changes":[3.015952E4,4.0953523E3,1.5184502E4,1.2139325E3,0E0,1.4574748E2,8.31398E3,2.0101569E2,2.2751001E2,5.9420166E1,0E0,0E0,0E0,1.7497661E2,2.4825461E3,0E0,2.645477E1,0E0,8.8345075E-1,2.7319107E0,3.691187E2,4.0945396E3,3.9270522E3,4.0872526E-1,0E0,0E0,0E0,1.2500294E1,6.8725014E-1,2.2665309E2,6.790039E0,3.361688E3,7.254761E2,4.272713E3,1.00715735E3,0E0,0E0,4.04068E-1,4.265726E0,0E0,2.844262E-1,6.7691193E0,1.4863248E2,0E0,7.801703E1,1.776147E3,8.839182E3,2.8209302E3,7.260967E2,2.5149722E3,1.60175E3,2.3867639E2,2.3879099E2,0E0,0E0,0E0,0E0,0E0,0E0,0E0,0E0,0E0,0E0,0E0,0E0,0E0,0E0,0E0,0E0,0E0,0E0,0E0,0E0,0E0,0E0,0E0,0E0,0E0,0E0,0E0,0E0],"parents":[2147483647,0,0,1,1,2,2,3,3,5,5,6,6,7,7,8,8,9,9,13,13,14,14,16,16,18,18,19,19,20,20,21,21,22,22,23,23,27,27,28,28,29,29,30,30,31,31,32,32,33,33,34,34,37,37,38,38,40,40,41,41,42,42,44,44,45,45,46,46,47,47,48,48,49,49,50,50,51,51,52,52],"right_children":[2,4,6,8,-1,10,12,14,16,18,-1,-1,-1,20,22,-1,24,-1,26,28,30,32,34,36,-1,-1,-1,38,40,42,44,46,48,50,52,-1,-1,54,56,-1,58,60,62,-1,64,66,68,70,72,74,76,78,80,-1,-1,-1,-1,-1,-1,-1,-1,-1,-1,-1,-1,-1,-1,-1,-1,-1,-1,-1,-1,-1,-1,-1,-1,-1,-1,-1,-1],"split_conditions":[1.1E1,4.3871E0,3.94643E0,1.96307E0,5.0609565E0,9.99908E-1,2.807E3,3.91667E0,1.97048E0,8.02524E0,-4.8790705E-1,1.639828E1,-1.0234429E0,9E0,9.15527E-5,-2.7182941E0,9.99268E-1,1.030423E0,3.65946E0,2.42788E1,1.2207E-4,9.99878E-1,1.52588E-4,1.707E3,-3.793821E-1,-8.524559E-2,-0E0,1.60024E1,3.581E3,9.99664E-1,9.99847E-1,5.3E2,9.99939E-1,9.99908E-1,6.24396E0,1.9809821E-1,-0E0,3.40404E0,9.99939E-1,-0E0,1.7329E1,9.15527E-5,9.99756E-1,8.682427E-1,2.15464E-3,9.99847E-1,9.99817E-1,9.99908E-1,9.99969E-1,5.3E2,9.99969E-1,9.99939E-1,9.99878E-1,-2.45001E-2,-0E0,-0E0,2.6495275E-1,-1.6414037E-1,-0E0,-5.950434E-1,-3.6480065E-2,5.479889E-1,-3.1148465E-2,5.363981E-1,-3.1608114E-1,-7.5084144E-1,2.2673562E0,2.5946512E0,-6.392093E0,2.2674007E0,-1.4134892E0,3.4708445E0,5.092257E-1,-1.717864E0,2.4716017E0,-6.320182E0,2.6952425E-1,3.400881E0,-3.3193614E-2,5.7454056E-1,-1.1784071E0],"split_indices":[8,9,9,23,0,27,1,9,23,16,0,0,0,8,26,0,27,0,10,21,26,27,26,1,0,0,0,18,1,27,27,3,27,27,16,0,0,9,27,0,18,26,27,0,29,27,27,27,27,3,27,27,27,0,0,0,0,0,0,0,0,0,0,0,0,0,0,0,0,0,0,0,0,0,0,0,0,0,0,0,0],"split_type":[0,0,0,0,0,0,0,0,0,0,0,0,0,0,0,0,0,0,0,0,0,0,0,0,0,0,0,0,0,0,0,0,0,0,0,0,0,0,0,0,0,0,0,0,0,0,0,0,0,0,0,0,0,0,0,0,0,0,0,0,0,0,0,0,0,0,0,0,0,0,0,0,0,0,0,0,0,0,0,0,0],"sum_hessian":[3.724E3,3.709E3,1.5E1,3.707E3,2E0,9E0,6E0,3.697E3,1E1,6E0,3E0,5E0,1E0,3.507E3,1.9E2,5E0,5E0,3E0,3E0,3.295E3,2.12E2,1.38E2,5.2E1,2E0,3E0,1E0,2E0,3.276E3,1.9E1,1.58E2,5.4E1,6.6E1,7.2E1,4.2E1,1E1,1E0,1E0,3.268E3,8E0,9E0,1E1,3.3E1,1.25E2,4E1,1.4E1,4.8E1,1.8E1,4.3E1,2.9E1,2.9E1,1.3E1,5E0,5E0,3.212E3,5.6E1,3E0,5E0,7E0,3E0,2.7E1,6E0,4E1,8.5E1,1E1,4E0,3.7E1,1.1E1,6E0,1.2E1,2.4E1,1.9E1,1.5E1,1.4E1,2.3E1,6E0,1.1E1,2E0,4E0,1E0,2E0,3E0],"tree_param":{"num_deleted":"0","num_feature":"33","num_nodes":"81","size_leaf_vector":"1"}},{"base_weights":[4.049209E-1,1.1144591E-1,2.3609806E1,-4.109181E-2,3.358474E0,3.6391953E1,-6.6364155E0,-1.7319646E-2,-4.553885E0,7.494174E0,-2.3715818E0,5.266227E0,5.8674503E1,4.4582644E0,-4.0775275E0,-7.237058E-2,6.992689E-1,-3.058892E0,2.1841526E0,1.3365128E1,-1.6251628E0,-1.1771887E1,2.0002997E0,-2.1565151E0,1.2683097E1,1.6632135E1,1.6570409E-1,5.5981183E0,-0E0,-6.8307765E-2,-9.1682345E-1,-1.4959127E-1,1.6508665E0,1.5239356E1,-2.446821E0,7.5704107E0,-1.2113783E1,4.7843194E0,-4.621528E0,-3.1047463E0,1.3251469E1,4.3792367E0,-2.5035944E-2,1.6306789E0,-0E0,-1.22220084E-1,8.0174536E-2,-7.0727736E-2,1.0653033E-1,-3.1943408E-1,-0E0,1.5056102E0,-1.628382E0,1.929604E0,-1.9359399E0,3.1386719E0,2.0529097E1,1.0466967E1,-2.3040454E0,-9.877622E-1,-1.4229808E1,-9.0188783E-1,1.8233632E0,-1.1378067E1,6.405726E0,6.1259384E0,-5.314767E0,-6.635817E-2,-2.8883716E-1,-9.122274E-2,3.0858624E0,3.8121182E-1,-3.1775799E0,1.1815875E-1,2.3930402E0,-7.8067106E-1,8.255722E-2,1.1353095E1,-7.435653E0,5.860469E0,-5.311068E-1,-1.1830596E0,1.3977485E1,-2.3919716E0,4.220399E0,7.5902667E0,-2.2561536E0,-7.969143E-1,-4.3108306E0,-3.1045955E-1,-0E0,-4.528583E0,1.0589326E1,-2.2942207E0,9.986429E0,6.249938E0,-1.2123384E1,-1.8124815E-2,-0E0,-0E0,-9.706188E-2,9.018638E-2,-5.216342E-1,9.564835E-1,4.423149E-2,-5.4741836E-1,3.802383E-1,-4.0641668E-1,-1.1499311E0,5.9970576E-1,-3.6437303E-1,8.1725925E-1,2.1664682E-1,-1.2727623E0,4.546158E0,1.4046862E0,-4.3128567E0,3.7347013E-1,-8.7047267E-1,5.2060738E0,-1.7725632E-1,-0E0,1.2550478E0,-1.0835466E-1,2.423087E0,-2.0459123E0,1.5731512E0,3.8366845E0,-6.3408536E-1,3.6292918E0,-2.0101016E0,-1.176922E-1,2.0356221E0,-5.186091E-2,-3.4531276E0],"categories":[],"categories_nodes":[],"categories_segments":[],"categories_sizes":[],"default_left":[0,0,0,0,0,0,0,0,0,0,0,0,0,0,0,0,0,0,0,0,0,0,0,0,0,0,0,0,0,0,0,0,0,0,0,0,0,0,0,0,0,0,0,0,0,0,0,0,0,0,0,0,0,0,0,0,0,0,0,0,0,0,0,0,0,0,0,0,0,0,0,0,0,0,0,0,0,0,0,0,0,0,0,0,0,0,0,0,0,0,0,0,0,0,0,0,0,0,0,0,0,0,0,0,0,0,0,0,0,0,0,0,0,0,0,0,0,0,0,0,0,0,0,0,0,0,0,0,0,0,0,0,0,0,0],"id":21,"left_children":[1,3,5,7,9,11,13,15,17,19,21,23,25,27,-1,29,31,-1,-1,33,35,37,39,-1,41,-1,-1,43,45,47,49,51,53,55,-1,57,59,61,-1,63,65,-1,-1,-1,-1,-1,-1,67,-1,-1,-1,69,71,73,75,77,79,81,83,85,87,89,-1,91,93,-1,95,97,99,101,103,105,107,109,111,-1,-1,113,115,-1,-1,117,119,-1,121,123,-1,125,-1,-1,-1,-1,127,-1,129,131,133,-1,-1,-1,-1,-1,-1,-1,-1,-1,-1,-1,-1,-1,-1,-1,-1,-1,-1,-1,-1,-1,-1,-1,-1,-1,-1,-1,-1,-1,-1,-1,-1,-1,-1,-1,-1,-1,-1],"loss_changes":[2.4847594E4,1.805818E3,2.000914E4,3.5958438E2,4.0599663E3,2.0157488E4,2.6913208E3,1.3546078E2,2.3820813E3,5.462883E3,3.3570208E3,3.3933298E3,2.5160312E3,9.594562E1,0E0,7.8724537E0,2.0389227E2,0E0,0E0,3.8803613E3,5.3816562E3,3.065487E3,3.8423328E3,0E0,9.3417334E2,0E0,0E0,3.1670105E1,3.2920356E0,3.02104E0,5.019762E0,3.5807953E2,1.5328653E2,3.1338281E3,0E0,1.1268472E3,4.2726245E2,2.2468915E2,0E0,4.532611E3,4.7876816E3,0E0,0E0,0E0,0E0,0E0,0E0,1.9495449E0,0E0,0E0,0E0,1.8364755E2,2.604909E2,8.683542E1,4.2038857E1,3.3870986E3,1.4731875E3,1.2379531E3,9.9127637E2,1.5272977E3,3.0636963E2,4.5171156E0,0E0,5.199049E3,2.3380098E3,0E0,1.8882095E3,2.6484013E-1,5.290227E-1,4.359305E1,3.1519196E1,1.2805676E2,5.6158752E0,1.3723874E2,5.6368164E1,0E0,0E0,2.5914639E3,2.8172886E3,0E0,0E0,1.2344249E2,1.7566619E3,0E0,2.8967194E1,1.8354926E2,0E0,9.884504E2,0E0,0E0,0E0,0E0,8.878845E2,0E0,2.618818E3,1.4884451E2,3.8899536E1,0E0,0E0,0E0,0E0,0E0,0E0,0E0,0E0,0E0,0E0,0E0,0E0,0E0,0E0,0E0,0E0,0E0,0E0,0E0,0E0,0E0,0E0,0E0,0E0,0E0,0E0,0E0,0E0,0E0,0E0,0E0,0E0,0E0,0E0,0E0,0E0,0E0,0E0],"parents":[2147483647,0,0,1,1,2,2,3,3,4,4,5,5,6,6,7,7,8,8,9,9,10,10,11,11,12,12,13,13,15,15,16,16,19,19,20,20,21,21,22,22,24,24,27,27,28,28,29,29,30,30,31,31,32,32,33,33,35,35,36,36,37,37,39,39,40,40,47,47,51,51,52,52,53,53,54,54,55,55,56,56,57,57,58,58,59,59,60,60,61,61,63,63,64,64,66,66,67,67,68,68,69,69,70,70,71,71,72,72,73,73,74,74,77,77,78,78,81,81,82,82,84,84,85,85,87,87,92,92,94,94,95,95,96,96],"right_children":[2,4,6,8,10,12,14,16,18,20,22,24,26,28,-1,30,32,-1,-1,34,36,38,40,-1,42,-1,-1,44,46,48,50,52,54,56,-1,58,60,62,-1,64,66,-1,-1,-1,-1,-1,-1,68,-1,-1,-1,70,72,74,76,78,80,82,84,86,88,90,-1,92,94,-1,96,98,100,102,104,106,108,110,112,-1,-1,114,116,-1,-1,118,120,-1,122,124,-1,126,-1,-1,-1,-1,128,-1,130,132,134,-1,-1,-1,-1,-1,-1,-1,-1,-1,-1,-1,-1,-1,-1,-1,-1,-1,-1,-1,-1,-1,-1,-1,-1,-1,-1,-1,-1,-1,-1,-1,-1,-1,-1,-1,-1,-1,-1],"split_conditions":[2.66E2,2.62E2,7.89214E0,2.6E2,9.99908E-1,9.99847E-1,7.2E1,3.61102E0,9.99695E-1,8.02E2,6.19098E-1,3.13828E1,1.2207E-4,9.99908E-1,-4.0775275E0,9E0,9.99756E-1,-3.058892E0,2.1841526E0,2.15464E-3,6.1931E-1,6.18252E-1,8.02E2,-2.1565151E0,6.29379E-1,1.6632135E1,1.6570409E-1,2.393E3,2.385E3,1.82442E1,9.8407E-1,9.99634E-1,9.99939E-1,9.99847E-1,-2.446821E0,9.99878E-1,9.99847E-1,6.17841E-1,-4.621528E0,9.99939E-1,9.42545E-4,4.3792367E0,-2.5035944E-2,1.6306789E0,-0E0,-1.22220084E-1,8.0174536E-2,1.59049E1,1.0653033E-1,-3.1943408E-1,-0E0,9.99359E-1,2.28E2,6.24478E-1,6.10352E-5,9.99817E-1,6.22528E-1,6.18252E-1,6.18808E-1,6.10352E-5,6.19567E-1,9.99939E-1,1.8233632E0,1.2207E-4,6.20241E-1,6.1259384E0,9.99939E-1,3.618E3,2.34458E1,4.46E2,1.52588E-4,9.99664E-1,9.99725E-1,2.28E2,9.99847E-1,-7.8067106E-1,8.255722E-2,9.99786E-1,6.21175E-1,5.860469E0,-5.311068E-1,9.15527E-5,6.19098E-1,-2.3919716E0,6.19098E-1,9.99817E-1,-2.2561536E0,6.10352E-5,-4.3108306E0,-3.1045955E-1,-0E0,-4.528583E0,6.21018E-1,-2.2942207E0,6.21982E-1,6.1931E-1,6.19567E-1,-1.8124815E-2,-0E0,-0E0,-9.706188E-2,9.018638E-2,-5.216342E-1,9.564835E-1,4.423149E-2,-5.4741836E-1,3.802383E-1,-4.0641668E-1,-1.1499311E0,5.9970576E-1,-3.6437303E-1,8.1725925E-1,2.1664682E-1,-1.2727623E0,4.546158E0,1.4046862E0,-4.3128567E0,3.7347013E-1,-8.7047267E-1,5.2060738E0,-1.7725632E-1,-0E0,1.2550478E0,-1.0835466E-1,2.423087E0,-2.0459123E0,1.5731512E0,3.8366845E0,-6.3408536E-1,3.6292918E0,-2.0101016E0,-1.176922E-1,2.0356221E0,-5.186091E-2,-3.4531276E0],"split_indices":[12,12,16,12,27,27,13,10,27,1,31,14,26,27,0,8,27,0,0,29,31,31,1,0,31,0,0,1,1,18,27,27,27,27,0,27,27,31,0,27,29,0,0,0,0,0,0,18,0,0,0,27,2,31,26,27,31,31,31,26,31,27,0,26,31,0,27,1,21,3,26,27,27,2,27,0,0,27,31,0,0,26,31,0,31,27,0,26,0,0,0,0,31,0,31,31,31,0,0,0,0,0,0,0,0,0,0,0,0,0,0,0,0,0,0,0,0,0,0,0,0,0,0,0,0,0,0,0,0,0,0,0,0,0,0],"split_type":[0,0,0,0,0,0,0,0,0,0,0,0,0,0,0,0,0,0,0,0,0,0,0,0,0,0,0,0,0,0,0,0,0,0,0,0,0,0,0,0,0,0,0,0,0,0,0,0,0,0,0,0,0,0,0,0,0,0,0,0,0,0,0,0,0,0,0,0,0,0,0,0,0,0,0,0,0,0,0,0,0,0,0,0,0,0,0,0,0,0,0,0,0,0,0,0,0,0,0,0,0,0,0,0,0,0,0,0,0,0,0,0,0,0,0,0,0,0,0,0,0,0,0,0,0,0,0,0,0,0,0,0,0,0,0],"sum_hessian":[3.652E3,3.616E3,3.6E1,3.462E3,1.54E2,2.4E1,1.2E1,3.454E3,8E0,8.8E1,6.6E1,1.5E1,9E0,7E0,5E0,3.219E3,2.35E2,6E0,2E0,5.1E1,3.7E1,1.6E1,5E1,5E0,1E1,8E0,1E0,4E0,3E0,3.217E3,2E0,1.27E2,1.08E2,5E1,1E0,2.1E1,1.6E1,4E0,1.2E1,3.9E1,1.1E1,6E0,4E0,3E0,1E0,2E0,1E0,3.214E3,3E0,1E0,1E0,5.9E1,6.8E1,1.05E2,3E0,2E1,3E1,1.6E1,5E0,5E0,1.1E1,2E0,2E0,2E1,1.9E1,6E0,5E0,3.175E3,3.9E1,3.3E1,2.6E1,3.2E1,3.6E1,2.5E1,8E1,1E0,2E0,1.1E1,9E0,2.9E1,1E0,5E0,1.1E1,1E0,4E0,2E0,3E0,3E0,8E0,1E0,1E0,1.8E1,2E0,1E0,1.8E1,2E0,3E0,3.172E3,3E0,1.3E1,2.6E1,3.2E1,1E0,2E1,6E0,6E0,2.6E1,2.4E1,1.2E1,9E0,1.6E1,5E1,3E1,3E0,8E0,5E0,4E0,3E0,2E0,6E0,5E0,1E0,3E0,1E0,1E0,1E0,2E0,1E0,1E0,1.7E1,1E0,1E0,1E0,1E0,2E0],"tree_param":{"num_deleted":"0","num_feature":"33","num_nodes":"135","size_leaf_vector":"1"}},{"base_weights":[2.813006E-1,8.9742765E-3,2.807102E1,-2.1100578E-1,1.5972062E0,4.6932323E1,6.209258E0,-1.6098276E-2,-1.165194E1,-6.250678E-2,1.2433684E1,3.4666247E0,1.4448843E1,1.0058226E1,-3.6500456E0,-1.0795591E-1,8.513698E0,-1.9592607E1,3.3749516E0,-9.279934E-1,4.0803027E-1,1.4732329E1,-1.9382074E0,-1.0078638E0,2.0011942E0,-1.4224546E0,1.5196033E1,-0E0,-1.0238098E0,6.829148E-3,-5.004182E0,1.704881E1,-1.1462226E0,-2.509757E1,1.2831637E1,7.254758E0,-2.3842237E0,1.2831798E-2,-2.27839E0,2.7044265E0,4.4753958E-2,6.868838E0,7.652185E0,4.086086E-2,-5.924702E-1,1.650245E1,-6.404579E-2,-4.744983E-2,7.849936E0,2.2811673E0,-1.3270149E1,-1.3376026E0,2.2719322E1,-6.9783366E-1,-0E0,-7.2231345E0,-1.7385459E0,-0E0,3.7385309E0,4.008158E0,-0E0,-1.4083793E0,2.0137885E0,1.5256552E-1,-4.355722E0,4.2686167E-1,1.0621824E0,-1.7815667E0,2.5729093E-1,1.0683247E1,-8.867191E0,-0E0,8.029126E-2,4.6638803E0,7.8123555E-2,-4.0390186E-2,-4.4656706E-1,-2.9295927E-1,9.427619E0,-2.829536E0,1.1586989E1,-2.1287493E1,2.5748312E-1,7.1846128E0,2.939787E0,-1.5762568E0,8.673942E-1,1.1450353E0,-2.0071464E0,-1.192129E0,3.2549224E0,-6.5049887E-1,7.178297E-1,-4.7643027E0,1.334359E-1,2.669458E0,-1.4103624E0,4.455508E-1,-3.0619414E0,-2.8533295E-2,2.0697756E0,1.3342994E1,-7.480128E0,-1.1422133E1,5.926176E-1,-0E0,-1.8340609E-3,-1.1903564E-2,4.590493E-2,-2.366727E-1,3.0366194E0,-1.7568003E0,5.066452E-1,3.857173E0,-9.118465E-2,-6.4416075E0,1.5923354E-1,-3.8237828E-1,9.965666E-1,-1.4343728E0,2.121428E0,6.1913365E-1,-2.743381E-1,-1.1084635E0,-1.4397672E-1,3.0699957E-3,-4.6287227E-1,1.5325155E0,-1.5953879E-1,2.4764623E-1,-7.070027E-1,-1.3194019E0,-0E0,-0E0,6.836714E-2,-0E0,9.6336794E-1,1.9784291E-1,-5.628909E-1,5.467582E-1,-4.541286E-1,-9.686403E-1,-5.08903E-2,2.2570817E-1,-9.6361116E-2,-8.243023E-2,8.0397475E-1,1.6894218E-1,4.9258122E0,-4.231174E0,1.9490483E0,1.05796985E-1,-3.4808695E0],"categories":[],"categories_nodes":[],"categories_segments":[],"categories_sizes":[],"default_left":[0,0,0,0,0,0,0,0,0,0,0,0,0,0,0,0,0,0,0,0,0,0,0,0,0,0,0,0,0,0,0,0,0,0,0,0,0,0,0,0,0,0,0,0,0,0,0,0,0,0,0,0,0,0,0,0,0,0,0,0,0,0,0,0,0,0,0,0,0,0,0,0,0,0,0,0,0,0,0,0,0,0,0,0,0,0,0,0,0,0,0,0,0,0,0,0,0,0,0,0,0,0,0,0,0,0,0,0,0,0,0,0,0,0,0,0,0,0,0,0,0,0,0,0,0,0,0,0,0,0,0,0,0,0,0,0,0,0,0,0,0,0,0,0,0,0,0,0,0,0,0,0,0],"id":22,"left_children":[1,3,5,7,9,11,13,15,17,19,21,23,-1,25,27,29,31,33,35,37,39,41,-1,-1,-1,43,45,-1,-1,47,49,51,53,55,57,59,-1,61,63,65,67,69,-1,71,-1,73,-1,75,77,79,81,-1,83,-1,-1,-1,85,-1,-1,-1,-1,87,89,91,93,95,-1,97,99,101,103,105,-1,-1,-1,107,-1,-1,109,111,113,115,117,-1,119,-1,-1,121,123,125,127,129,-1,131,133,135,137,139,141,143,145,147,149,151,-1,-1,-1,-1,-1,-1,-1,-1,-1,-1,-1,-1,-1,-1,-1,-1,-1,-1,-1,-1,-1,-1,-1,-1,-1,-1,-1,-1,-1,-1,-1,-1,-1,-1,-1,-1,-1,-1,-1,-1,-1,-1,-1,-1,-1,-1,-1,-1,-1],"loss_changes":[2.7739602E4,1.2819764E3,1.1737879E4,7.1311445E3,8.071948E3,3.0336914E3,1.4146725E3,2.4692332E3,7.068236E3,1.6650075E2,3.7144854E3,6.292485E2,0E0,1.5747512E3,3.3258057E-1,1.780833E3,2.9970703E3,9.642955E3,1.8647764E3,1.899473E2,2.0978249E2,4.0791807E3,0E0,0E0,0E0,2.404359E1,4.1453638E2,0E0,0E0,1.3360707E3,4.6891406E3,3.438809E3,3.8095123E1,7.795293E2,1.1458801E2,1.4151451E3,0E0,2.9484744E2,3.233578E2,6.8725006E1,9.218519E1,3.8270408E3,0E0,9.090333E-1,0E0,9.316504E1,0E0,2.9640444E1,4.2383923E2,2.551919E3,3.9660654E3,0E0,4.3468555E2,0E0,0E0,0E0,4.4009995E2,0E0,0E0,0E0,0E0,1.15358376E2,2.1596881E2,9.529154E1,7.990735E1,1.3648766E2,0E0,9.004521E1,1.2074853E2,3.0758306E3,6.756781E2,4.8614293E-4,0E0,0E0,0E0,2.0731397E0,0E0,0E0,4.8432874E2,7.7643506E2,6.7506934E2,1.4445635E3,1.8515329E2,0E0,9.535142E2,0E0,0E0,6.65382E1,1.2901276E2,1.6287228E1,3.6593045E2,1.3371501E2,0E0,1.08966675E1,4.6946704E-1,4.297487E1,4.482586E1,8.888568E1,9.81337E0,5.8032623E1,8.3407135E1,2.41587E3,2.4888967E3,3.133103E2,0E0,0E0,0E0,0E0,0E0,0E0,0E0,0E0,0E0,0E0,0E0,0E0,0E0,0E0,0E0,0E0,0E0,0E0,0E0,0E0,0E0,0E0,0E0,0E0,0E0,0E0,0E0,0E0,0E0,0E0,0E0,0E0,0E0,0E0,0E0,0E0,0E0,0E0,0E0,0E0,0E0,0E0,0E0,0E0,0E0,0E0,0E0,0E0,0E0],"parents":[2147483647,0,0,1,1,2,2,3,3,4,4,5,5,6,6,7,7,8,8,9,9,10,10,11,11,13,13,14,14,15,15,16,16,17,17,18,18,19,19,20,20,21,21,25,25,26,26,29,29,30,30,31,31,32,32,33,33,34,34,35,35,37,37,38,38,39,39,40,40,41,41,43,43,45,45,47,47,48,48,49,49,50,50,52,52,56,56,61,61,62,62,63,63,64,64,65,65,67,67,68,68,69,69,70,70,71,71,75,75,78,78,79,79,80,80,81,81,82,82,84,84,87,87,88,88,89,89,90,90,91,91,93,93,94,94,95,95,96,96,97,97,98,98,99,99,100,100,101,101,102,102,103,103],"right_children":[2,4,6,8,10,12,14,16,18,20,22,24,-1,26,28,30,32,34,36,38,40,42,-1,-1,-1,44,46,-1,-1,48,50,52,54,56,58,60,-1,62,64,66,68,70,-1,72,-1,74,-1,76,78,80,82,-1,84,-1,-1,-1,86,-1,-1,-1,-1,88,90,92,94,96,-1,98,100,102,104,106,-1,-1,-1,108,-1,-1,110,112,114,116,118,-1,120,-1,-1,122,124,126,128,130,-1,132,134,136,138,140,142,144,146,148,150,152,-1,-1,-1,-1,-1,-1,-1,-1,-1,-1,-1,-1,-1,-1,-1,-1,-1,-1,-1,-1,-1,-1,-1,-1,-1,-1,-1,-1,-1,-1,-1,-1,-1,-1,-1,-1,-1,-1,-1,-1,-1,-1,-1,-1,-1,-1,-1,-1,-1],"split_conditions":[4.08E2,6.21175E-1,4.1674E-1,6.2059E-1,3.91667E0,9.99268E-1,4.22436E-1,6.19928E-1,4.08463E-1,9.99786E-1,6.24698E-1,3.28462E1,1.4448843E1,2.093E3,6.19567E-1,6.18556E-1,4.08247E-1,1.36026E-3,2.15464E-3,9.99725E-1,9.99817E-1,4.08587E-1,-1.9382074E0,-1.0078638E0,2.0011942E0,9.99847E-1,9.99939E-1,-0E0,-1.0238098E0,2.7E1,9.99908E-1,4.07284E-1,2.8E1,9.99969E-1,9.99847E-1,2.8E1,-2.3842237E0,9.99664E-1,6.24817E-1,6.24817E-1,4.07667E-1,4.08463E-1,7.652185E0,2.8E1,-5.924702E-1,9.42545E-4,-6.404579E-2,2.55E2,9.99786E-1,6.19567E-1,2.72603E1,-1.3376026E0,9.99908E-1,-6.9783366E-1,-0E0,-7.2231345E0,4.07961E-1,-0E0,3.7385309E0,4.008158E0,-0E0,4.07386E-1,6.24817E-1,6.24698E-1,2.15464E-3,6.24222E-1,1.0621824E0,9.42545E-4,1.36026E-3,9.99969E-1,6.2402E-1,1.753E3,8.029126E-2,4.6638803E0,7.8123555E-2,3.875E0,-4.4656706E-1,-2.9295927E-1,6.17841E-1,4.07091E-1,1.36026E-3,9.99969E-1,1.36026E-3,7.1846128E0,4.07562E-1,-1.5762568E0,8.673942E-1,9.99634E-1,4.08913E-1,4.07386E-1,4.09018E-1,4.08835E-1,7.178297E-1,4.09418E-1,2.28E2,9.42545E-4,4.07442E-1,4.07442E-1,6.24817E-1,6.24919E-1,9.99847E-1,9.99847E-1,4.0808E-1,6.21982E-1,5.926176E-1,-0E0,-1.8340609E-3,-1.1903564E-2,4.590493E-2,-2.366727E-1,3.0366194E0,-1.7568003E0,5.066452E-1,3.857173E0,-9.118465E-2,-6.4416075E0,1.5923354E-1,-3.8237828E-1,9.965666E-1,-1.4343728E0,2.121428E0,6.1913365E-1,-2.743381E-1,-1.1084635E0,-1.4397672E-1,3.0699957E-3,-4.6287227E-1,1.5325155E0,-1.5953879E-1,2.4764623E-1,-7.070027E-1,-1.3194019E0,-0E0,-0E0,6.836714E-2,-0E0,9.6336794E-1,1.9784291E-1,-5.628909E-1,5.467582E-1,-4.541286E-1,-9.686403E-1,-5.08903E-2,2.2570817E-1,-9.6361116E-2,-8.243023E-2,8.0397475E-1,1.6894218E-1,4.9258122E0,-4.231174E0,1.9490483E0,1.05796985E-1,-3.4808695E0],"split_indices":[12,31,28,31,9,27,28,31,28,27,31,14,0,1,31,31,28,29,29,27,27,28,0,0,0,27,27,0,0,22,27,28,0,27,27,0,0,27,31,31,28,28,0,0,0,29,0,12,27,31,14,0,27,0,0,0,28,0,0,0,0,28,31,31,29,31,0,29,29,27,31,1,0,0,0,9,0,0,31,28,29,27,29,0,28,0,0,27,28,28,28,28,0,28,2,29,28,28,31,31,27,27,28,31,0,0,0,0,0,0,0,0,0,0,0,0,0,0,0,0,0,0,0,0,0,0,0,0,0,0,0,0,0,0,0,0,0,0,0,0,0,0,0,0,0,0,0,0,0,0,0,0,0],"split_type":[0,0,0,0,0,0,0,0,0,0,0,0,0,0,0,0,0,0,0,0,0,0,0,0,0,0,0,0,0,0,0,0,0,0,0,0,0,0,0,0,0,0,0,0,0,0,0,0,0,0,0,0,0,0,0,0,0,0,0,0,0,0,0,0,0,0,0,0,0,0,0,0,0,0,0,0,0,0,0,0,0,0,0,0,0,0,0,0,0,0,0,0,0,0,0,0,0,0,0,0,0,0,0,0,0,0,0,0,0,0,0,0,0,0,0,0,0,0,0,0,0,0,0,0,0,0,0,0,0,0,0,0,0,0,0,0,0,0,0,0,0,0,0,0,0,0,0,0,0,0,0,0,0],"sum_hessian":[3.666E3,3.64E3,2.6E1,3.203E3,4.37E2,8E0,1.8E1,3.159E3,4.4E1,3.87E2,5E1,3E0,5E0,1.3E1,5E0,3.135E3,2.4E1,2.7E1,1.7E1,1.35E2,2.52E2,4.7E1,3E0,1E0,2E0,6E0,7E0,1E0,4E0,3.072E3,6.3E1,9E0,1.5E1,2.5E1,2E0,1.6E1,1E0,8.4E1,5.1E1,2.5E1,2.27E2,3.9E1,8E0,4E0,2E0,6E0,1E0,3.06E3,1.2E1,3.7E1,2.6E1,2E0,7E0,1E0,1.4E1,2.2E1,3E0,1E0,1E0,3E0,1.3E1,5E1,3.4E1,2.7E1,2.4E1,1.4E1,1.1E1,1.5E1,2.12E2,3.4E1,5E0,3E0,1E0,5E0,1E0,3.058E3,2E0,2E0,1E1,2.8E1,9E0,1.3E1,1.3E1,3E0,4E0,1E0,2E0,7E0,4.3E1,9E0,2.5E1,2.5E1,2E0,2.2E1,2E0,5E0,9E0,7E0,8E0,1.9E2,2.2E1,3.2E1,2E0,4E0,1E0,2E0,1E0,3.026E3,3.2E1,2E0,8E0,1.4E1,1.4E1,6E0,3E0,1.1E1,2E0,1.2E1,1E0,1E0,3E0,5E0,2E0,1E1,3.3E1,4E0,5E0,1.3E1,1.2E1,1.6E1,9E0,2.1E1,1E0,1E0,1E0,3E0,2E0,1E0,8E0,5E0,2E0,4E0,4E0,4.6E1,1.44E2,7E0,1.5E1,1.2E1,2E1,1E0,1E0,1E0,3E0],"tree_param":{"num_deleted":"0","num_feature":"33","num_nodes":"153","size_leaf_vector":"1"}},{"base_weights":[3.9896658E-1,-6.544932E-2,8.215301E0,-2.5332058E-2,-3.17006E0,6.029633E0,9.338321E0,-8.147142E-3,-2.5092623E0,1.1419702E1,6.2989235E-1,2.809324E-1,-5.046783E-2,6.1373657E-1,-1.2063255E0,1.907794E0,4.867217E0,5.9614115E0,-6.2872214E0,-4.451024E-3,2.7571154E0,-2.573619E0,-3.3802994E-2,1.1120005E0,-1.151517E-1,3.8997686E0,-1.9014823E0,8.2937355E0,-7.78799E0,-1.3201876E1,6.6272564E0,-4.0486887E-2,2.9599884E-1,3.7906227E0,7.797334E-1,-7.7848226E-1,3.48443E-3,7.766039E-1,-5.377266E-2,4.3906143E-1,-4.842678E-2,9.86725E-1,3.2913249E0,1.4005214E1,-3.7226439E0,-5.0928836E0,2.8187342E0,-3.9156125E0,-3.063962E0,1.3367935E1,-5.3159695E0,-1.0318763E-2,-2.3714572E-1,4.3348327E0,3.135598E-1,-2.9709136E0,1.1068808E0,-5.3569865E-1,3.667221E0,-1.9341394E0,-3.103727E-2,2.1418982E0,-3.5578032E0,-2.2940466E0,1.7030838E1,6.475491E0,-7.5978737E0,-8.448937E0,1.3176664E0,6.2983446E0,-6.5153127E0,-2.5136213E0,9.514796E-1,-5.7179257E-3,2.5850493E-2,-0E0,1.2409161E0,-1.09079614E-1,2.5558612E-1,-0E0,-9.2576844E-1,-7.454566E-1,5.150008E-1,1.1599818E0,-8.018846E-2,-7.42155E-1,4.4538862E-1,4.5666498E-1,-1.3363326E-2,-0E0,1.2003251E0,9.655312E-2,-1.1954261E0,-1.5393157E0,5.1257157E0,1.9076487E0,-0E0,-2.3517997E0,-0E0,3.890703E-1,-3.1309574E0,-7.840132E-3,-1.8388547E0],"categories":[],